{
    "layers": [
        {
            "layer_type": "input",
            "out_depth": 1,
            "out_sx": 24,
            "out_sy": 24
        },
        {
            "biases": {
                "depth": 8,
                "sx": 1,
                "sy": 1,
                "w": {
                    "0": -0.19917178214062733,
                    "1": -0.4154501321739549,
                    "2": -1.0093117696861527,
                    "3": -0.6041965825397696,
                    "4": 0.12335058753976928,
                    "5": 0.09316648044149975,
                    "6": -0.045112369318197273,
                    "7": 0.0001875152769330369
                }
            },
            "filters": [
                {
                    "depth": 1,
                    "sx": 5,
                    "sy": 5,
                    "w": {
                        "0": -0.048711968444818586,
                        "1": -0.5802522371100052,
                        "10": 0.08339502370528748,
                        "11": 0.2603068022905635,
                        "12": 0.1859186873882486,
                        "13": -0.10058676255692321,
                        "14": -0.1724855428376956,
                        "15": -0.23681272781723026,
                        "16": -0.16829650714327804,
                        "17": 0.20926673766111345,
                        "18": 0.07597028779248219,
                        "19": 0.11917754636745624,
                        "2": -0.3857633347878705,
                        "20": 0.36793987059969185,
                        "21": 0.20131396401872315,
                        "22": 0.2725047971734997,
                        "23": 0.5349417438382453,
                        "24": 0.42650893541180174,
                        "3": -0.29321191612908803,
                        "4": 0.2229832066274171,
                        "5": 0.44960543247818185,
                        "6": 0.38524822924651186,
                        "7": -0.24846356827910743,
                        "8": -0.7914662999225602,
                        "9": -0.5638176527881907
                    }
                },
                {
                    "depth": 1,
                    "sx": 5,
                    "sy": 5,
                    "w": {
                        "0": 0.33691241034193536,
                        "1": -0.09040682581901809,
                        "10": -0.0821761112374924,
                        "11": 0.4912032877527796,
                        "12": -0.1218955930242631,
                        "13": -0.38553156726999716,
                        "14": 0.08455689257071984,
                        "15": 0.46683093948998144,
                        "16": 0.44582786969907195,
                        "17": 0.03161048863453999,
                        "18": -0.17302015209995653,
                        "19": -0.861101161856057,
                        "2": 0.2795639029810387,
                        "20": 0.36368345035943195,
                        "21": -0.04227994201192866,
                        "22": -0.14054672910780208,
                        "23": -0.11307220075987583,
                        "24": -0.9845659657369191,
                        "3": -0.0718721204051111,
                        "4": 0.20166625080365067,
                        "5": 0.26385202279577197,
                        "6": -0.014380959706294182,
                        "7": 0.2311579330034676,
                        "8": -0.20394521512669864,
                        "9": 0.2198746099032082
                    }
                },
                {
                    "depth": 1,
                    "sx": 5,
                    "sy": 5,
                    "w": {
                        "0": 0.4181032284386851,
                        "1": 0.2924812478149233,
                        "10": -0.044439140583833345,
                        "11": -0.5698083718133574,
                        "12": -0.49156121604194153,
                        "13": 0.5823078032562391,
                        "14": -0.03514148775143376,
                        "15": -0.3289937240569397,
                        "16": -0.40916990486892324,
                        "17": -0.17856677737540633,
                        "18": 0.6247982323313794,
                        "19": 0.8521521363003283,
                        "2": 0.0009712676220252408,
                        "20": -0.060641872734226256,
                        "21": -0.28793621638070177,
                        "22": -0.532045891930804,
                        "23": -0.36859778689654327,
                        "24": 0.3149835404148498,
                        "3": 0.42869401437322574,
                        "4": 0.12491065864321164,
                        "5": 0.3327498895570926,
                        "6": -0.048765906935553216,
                        "7": -0.43865025965645604,
                        "8": 0.38490412157437714,
                        "9": -0.05433404756016486
                    }
                },
                {
                    "depth": 1,
                    "sx": 5,
                    "sy": 5,
                    "w": {
                        "0": -0.6991663136403671,
                        "1": -0.2641413106068026,
                        "10": 1.3722327443512012,
                        "11": 0.6308403824850335,
                        "12": -0.37401202988317545,
                        "13": -0.5016552657801069,
                        "14": 0.22747509864573245,
                        "15": 0.1034253727886529,
                        "16": -0.9606072010281838,
                        "17": -0.6669096788744472,
                        "18": 0.27202866009246385,
                        "19": -0.22920053690404152,
                        "2": -0.17316780100898477,
                        "20": -0.33324070380895054,
                        "21": 0.05507571321201675,
                        "22": 0.26560757203837254,
                        "23": 0.24346087742091393,
                        "24": -0.2079524817314168,
                        "3": 0.10995589958235924,
                        "4": 0.2737960253705414,
                        "5": -0.6067692561867375,
                        "6": 0.6747642564626338,
                        "7": 0.9148212819103893,
                        "8": 0.055676607069968145,
                        "9": -0.12623805561898785
                    }
                },
                {
                    "depth": 1,
                    "sx": 5,
                    "sy": 5,
                    "w": {
                        "0": 0.31068227807976967,
                        "1": 0.6455574813641166,
                        "10": 0.23161800450667172,
                        "11": -1.6003979163823168,
                        "12": -0.5405915872849557,
                        "13": 0.5658536166723074,
                        "14": 0.38279114209350334,
                        "15": -0.9578932912533076,
                        "16": -0.8175715306094765,
                        "17": 0.6267293267251407,
                        "18": 0.38379318040817745,
                        "19": 0.008594176077286811,
                        "2": 0.15145626313823396,
                        "20": -0.7477111709958084,
                        "21": -0.3947424234232146,
                        "22": 0.23977772913201972,
                        "23": 0.1533757205293243,
                        "24": 0.09073706515593359,
                        "3": -0.5332732545619007,
                        "4": -0.5301247959236213,
                        "5": 0.25782105041225417,
                        "6": -0.02738372943876599,
                        "7": -1.6031707916757538,
                        "8": -0.4483010041723497,
                        "9": -0.058354985085354534
                    }
                },
                {
                    "depth": 1,
                    "sx": 5,
                    "sy": 5,
                    "w": {
                        "0": 0.40331335889925696,
                        "1": -0.00995222128981986,
                        "10": -0.5259360783285401,
                        "11": 0.5120637657722661,
                        "12": 0.3712918706598722,
                        "13": 0.2968839593817936,
                        "14": 0.011401062124637226,
                        "15": -1.1186215583614307,
                        "16": -1.3063026634857158,
                        "17": -0.5791010331728759,
                        "18": -0.5011587445428429,
                        "19": -0.6355639440878806,
                        "2": -0.014366018950224074,
                        "20": 0.7073669007267275,
                        "21": -0.3085788601619293,
                        "22": -0.684668478825766,
                        "23": -0.5218472100052726,
                        "24": 0.0879551551994847,
                        "3": 0.2852293692297566,
                        "4": 0.5972469326885012,
                        "5": 0.0745434712389046,
                        "6": 0.4043958435036142,
                        "7": 0.3385459304963366,
                        "8": 0.02475572203512142,
                        "9": 0.09566133005476773
                    }
                },
                {
                    "depth": 1,
                    "sx": 5,
                    "sy": 5,
                    "w": {
                        "0": 0.18161725969355721,
                        "1": 0.07132364486878205,
                        "10": -0.041819057083321794,
                        "11": -0.2247103693969354,
                        "12": 0.09932456353006491,
                        "13": 1.2518248288112002,
                        "14": -0.4184144989494751,
                        "15": -0.28909099505329167,
                        "16": -0.5161673938082567,
                        "17": -0.2585200773914008,
                        "18": 0.15061911305979048,
                        "19": -0.06974443543518963,
                        "2": -0.397818709075554,
                        "20": 0.18283791357681842,
                        "21": -0.16973431613180162,
                        "22": -0.0023914284463451025,
                        "23": -0.0411731202644604,
                        "24": 0.05395723180882118,
                        "3": -0.6121951604317714,
                        "4": -0.9351643155430216,
                        "5": -0.08492246967549649,
                        "6": 0.2640227068556146,
                        "7": 0.7635800276707571,
                        "8": 0.9390805426672607,
                        "9": -0.757967543741087
                    }
                },
                {
                    "depth": 1,
                    "sx": 5,
                    "sy": 5,
                    "w": {
                        "0": -0.03560395605078364,
                        "1": -0.27024344073088385,
                        "10": -0.26269459012281116,
                        "11": -0.25641649183145626,
                        "12": -0.47072285310436174,
                        "13": -0.6368156978310388,
                        "14": 0.01428100722243788,
                        "15": -0.38617709729384925,
                        "16": -0.13564019619252232,
                        "17": 0.11255735296902279,
                        "18": -0.1982941634941089,
                        "19": 0.5370163171427872,
                        "2": 0.17798382883724295,
                        "20": -0.4921023164581562,
                        "21": -0.365776670980447,
                        "22": -0.4739969681724387,
                        "23": -0.15343183839153254,
                        "24": 0.9524230150097859,
                        "3": 0.10355182238750596,
                        "4": -0.17534414976907634,
                        "5": -0.3051166714288789,
                        "6": -0.30405082792310006,
                        "7": -0.24908961309204236,
                        "8": -0.5752532756054153,
                        "9": -0.13978179617166497
                    }
                }
            ],
            "in_depth": 1,
            "l1_decay_mul": 0,
            "l2_decay_mul": 1,
            "layer_type": "conv",
            "out_depth": 8,
            "out_sx": 24,
            "out_sy": 24,
            "pad": 2,
            "stride": 1,
            "sx": 5,
            "sy": 5
        },
        {
            "layer_type": "relu",
            "out_depth": 8,
            "out_sx": 24,
            "out_sy": 24
        },
        {
            "in_depth": 8,
            "layer_type": "pool",
            "out_depth": 8,
            "out_sx": 12,
            "out_sy": 12,
            "pad": 0,
            "stride": 2,
            "sx": 2,
            "sy": 2
        },
        {
            "biases": {
                "depth": 16,
                "sx": 1,
                "sy": 1,
                "w": {
                    "0": -0.6415189064748987,
                    "1": -0.4578409628003371,
                    "10": -1.2075717113033702,
                    "11": 0.3015055625131797,
                    "12": -0.48944463712807473,
                    "13": -0.8459601688769218,
                    "14": -1.8911157575854356,
                    "15": -1.0086453357207608,
                    "2": -1.5238236316140354,
                    "3": 0.0027701012673478674,
                    "4": -1.1054694252955606,
                    "5": -0.7568207423894872,
                    "6": -1.1269016725945653,
                    "7": -2.070742895285722,
                    "8": -0.9495633628258836,
                    "9": -2.0431074392173634
                }
            },
            "filters": [
                {
                    "depth": 8,
                    "sx": 5,
                    "sy": 5,
                    "w": {
                        "0": -0.10830345143211799,
                        "1": -0.6946322465649192,
                        "10": -0.1749276431288948,
                        "100": -0.10092403737934989,
                        "101": -0.08004956718451782,
                        "102": -0.2096476408521831,
                        "103": -0.22858186626084948,
                        "104": 0.21275167619759588,
                        "105": -0.2547436756875332,
                        "106": -0.06398960489814466,
                        "107": -0.0652637879667126,
                        "108": -0.08414696503918723,
                        "109": -0.14858900682616327,
                        "11": -0.1748693471877635,
                        "110": -0.1011853946517429,
                        "111": -0.3818804535733693,
                        "112": -0.08088088779714904,
                        "113": -0.09900559178022843,
                        "114": -0.13681118831571437,
                        "115": -0.24619847718033708,
                        "116": 0.20722434206440388,
                        "117": 0.1649241238738356,
                        "118": -0.11804821396228428,
                        "119": -0.5145107265496279,
                        "12": 0.06986326347376852,
                        "120": 0.7611903532797035,
                        "121": -0.11758891141692429,
                        "122": 0.05175608165331739,
                        "123": 0.19150254063078365,
                        "124": -0.036595175407727484,
                        "125": 0.0246767668781516,
                        "126": -0.10388609088997679,
                        "127": -0.029538957124593385,
                        "128": 0.3519912576795144,
                        "129": -0.12953282606546285,
                        "13": 0.47765558294344906,
                        "130": -0.21672528876694677,
                        "131": 0.06230129201639221,
                        "132": 0.03180806395532818,
                        "133": 0.21518241834653168,
                        "134": 0.03153810770799902,
                        "135": 0.026343503935642096,
                        "136": -0.004426381522273573,
                        "137": 0.06733304545635475,
                        "138": -0.03709078124039202,
                        "139": 0.006779542373550472,
                        "14": 0.0075187131660775395,
                        "140": -0.2959987052550296,
                        "141": -0.00760030729769931,
                        "142": 0.16770410235991629,
                        "143": -0.07806995668225464,
                        "144": 0.16000063585640875,
                        "145": -0.06922319287535326,
                        "146": -0.2263345189300219,
                        "147": -0.1014078795097697,
                        "148": -0.23410400423306532,
                        "149": 0.041131852080839644,
                        "15": -0.06374669973458881,
                        "150": 0.3534418124734936,
                        "151": -0.129385578802169,
                        "152": 0.4519710076732175,
                        "153": 0.013800448881380859,
                        "154": -0.3867769320492152,
                        "155": -0.22102222791732556,
                        "156": -0.13221044143626756,
                        "157": -0.17123072619337415,
                        "158": -0.08567393756287994,
                        "159": -0.12021433791828733,
                        "16": 0.1080764611490094,
                        "160": 0.13678484097731988,
                        "161": 0.03168745947922792,
                        "162": 0.06526108142041093,
                        "163": -0.0011218246449102105,
                        "164": -0.06371840848910522,
                        "165": 0.0674715368896281,
                        "166": -0.28956337565047297,
                        "167": -0.29053369328955075,
                        "168": 0.05768480544018666,
                        "169": 0.2588913488995637,
                        "17": 0.3374713678385045,
                        "170": 0.15724020592444485,
                        "171": 0.43841723891404427,
                        "172": -0.004246459349898129,
                        "173": -0.04577137300712335,
                        "174": 0.009583221458408805,
                        "175": -0.05340193075210072,
                        "176": 0.1063932344382118,
                        "177": 0.1767623172429183,
                        "178": 0.08654996983297415,
                        "179": -0.27321181273504974,
                        "18": -0.29218059743848096,
                        "180": -0.45105239256344193,
                        "181": -0.07550093879227875,
                        "182": 0.25300937538575996,
                        "183": -0.19297193048684383,
                        "184": 0.3428040234510954,
                        "185": -0.01306544898594534,
                        "186": 0.1956899320852214,
                        "187": -0.3413749197204018,
                        "188": 0.03559816044998239,
                        "189": 0.38172075402993644,
                        "19": -0.03859051265376998,
                        "190": -0.004283744682086804,
                        "191": -0.18800436917734178,
                        "192": 0.29996483497611426,
                        "193": 0.01852611967853095,
                        "194": 0.08158039075801544,
                        "195": -0.257677922908161,
                        "196": 0.12982791560516044,
                        "197": -0.1723707904300058,
                        "198": 0.4602923953125615,
                        "199": -0.10110085029227579,
                        "2": -0.11872763999881071,
                        "20": 0.22433906336369044,
                        "21": 0.5034325828653105,
                        "22": -0.11848315349707057,
                        "23": -0.015516532477856473,
                        "24": -0.12476428518542498,
                        "25": 0.06662001126484501,
                        "26": -0.32185541772740023,
                        "27": -0.01723029921270769,
                        "28": 0.4412553913794738,
                        "29": 0.3163310698115217,
                        "3": -0.50245972792849,
                        "30": -0.4015499010520643,
                        "31": 0.09930451058444427,
                        "32": -0.268087338114397,
                        "33": 0.26914652292794256,
                        "34": 0.07396246304124242,
                        "35": -0.24327297936245132,
                        "36": 0.4564041850029003,
                        "37": -0.09650924921724265,
                        "38": -0.09466457153854972,
                        "39": 0.5628712277645835,
                        "4": -0.028547227138526806,
                        "40": 0.17230577587164583,
                        "41": -0.6721763238306686,
                        "42": -0.5690917567121292,
                        "43": -0.13857024647636862,
                        "44": -0.25778930714730164,
                        "45": -0.31500158876502393,
                        "46": -0.23402743862595593,
                        "47": -0.09790081512346374,
                        "48": 0.2352174933631566,
                        "49": -0.3666332095123694,
                        "5": 0.1085098887009972,
                        "50": -0.6325004335969646,
                        "51": 0.1807089249315632,
                        "52": -0.023436132495520935,
                        "53": 0.2375690300409125,
                        "54": -0.30577962532429215,
                        "55": -0.12228188526875314,
                        "56": 0.02778176054946926,
                        "57": -0.20638854341236826,
                        "58": -0.5495773730137679,
                        "59": 0.2538628487555744,
                        "6": -0.26496736535775434,
                        "60": 0.005765629488822659,
                        "61": 0.12384337156234251,
                        "62": 0.0043479697026790306,
                        "63": -0.20112197865467735,
                        "64": -0.11976121602905548,
                        "65": -0.1153941440206633,
                        "66": -0.03987861659377126,
                        "67": 0.003025170539086926,
                        "68": 0.015920069016719267,
                        "69": -0.22822788755543313,
                        "7": -0.04812313680289095,
                        "70": 0.04988469629276055,
                        "71": -0.3514766524310415,
                        "72": -0.16760966079176776,
                        "73": -0.14389879468177894,
                        "74": 0.26449977811908193,
                        "75": -0.052154798364168344,
                        "76": 0.14876195713371645,
                        "77": -0.16872051184826997,
                        "78": -0.2512350902203024,
                        "79": 0.5720413966782605,
                        "8": -0.04472125255064651,
                        "80": 0.09612520585229806,
                        "81": -0.4117018899953246,
                        "82": -0.13124617345499906,
                        "83": 0.13070353223802494,
                        "84": 0.22248577707478343,
                        "85": -0.09800081305059395,
                        "86": -0.47961314598003185,
                        "87": 0.1387034896001507,
                        "88": -0.06464033735193049,
                        "89": -0.29052444697931873,
                        "9": -0.15257928476279134,
                        "90": -0.2589507930827272,
                        "91": -0.07827637227189435,
                        "92": 0.03155287627032665,
                        "93": 0.08712141492180436,
                        "94": -0.48761808106641275,
                        "95": -0.006201251601843286,
                        "96": 0.06652012326555533,
                        "97": -0.20755866860250666,
                        "98": -0.354454148784764,
                        "99": -0.06281213646004814
                    }
                },
                {
                    "depth": 8,
                    "sx": 5,
                    "sy": 5,
                    "w": {
                        "0": 0.27804904482342013,
                        "1": 0.10146617980446614,
                        "10": 0.47091866746934,
                        "100": 0.2161549468864369,
                        "101": -0.35261882104238396,
                        "102": -0.6250784187894588,
                        "103": -0.06940861034277714,
                        "104": -0.42648467758783964,
                        "105": -0.12695945107592793,
                        "106": -0.11872438460277034,
                        "107": 0.1938355654277934,
                        "108": -0.08044223381037165,
                        "109": -0.29644913485196184,
                        "11": -0.2666215181808049,
                        "110": 0.14722395731711366,
                        "111": 0.17438038982356577,
                        "112": 0.25709285615503885,
                        "113": 0.4883685028425286,
                        "114": 0.34474813519428055,
                        "115": -0.3779197700170813,
                        "116": -0.6250838592554266,
                        "117": -0.3821724756142387,
                        "118": 0.31358638023058466,
                        "119": 0.28574585363771704,
                        "12": -0.574797446283213,
                        "120": -0.32461394716918907,
                        "121": 0.02458708493029807,
                        "122": -0.2968108470460603,
                        "123": 0.45606851483471417,
                        "124": 0.412711782414216,
                        "125": 0.05119465402968039,
                        "126": -0.26113678484266367,
                        "127": 0.41266899412817926,
                        "128": -0.555326454019084,
                        "129": -0.12176064424459897,
                        "13": -0.04289717998950934,
                        "130": -0.12134665895280439,
                        "131": 0.436798798713439,
                        "132": 0.16977414710013888,
                        "133": -0.18095129669391888,
                        "134": -0.5239779456691218,
                        "135": 0.06411494013971696,
                        "136": -0.30938054052714753,
                        "137": -0.09471800810752497,
                        "138": -0.15092407262067134,
                        "139": 0.6125156655977588,
                        "14": 1.2228202340681835,
                        "140": 0.08372699148851095,
                        "141": -0.23114509951305823,
                        "142": 0.1994234583043903,
                        "143": -0.1628154685371043,
                        "144": -0.1644664537260755,
                        "145": -0.17231899805053857,
                        "146": 0.4332546038564154,
                        "147": 0.1379498636194121,
                        "148": -0.0071221157443447465,
                        "149": -0.22537350240483697,
                        "15": -0.27261281695344375,
                        "150": 0.17674950071777096,
                        "151": 0.3075600273801416,
                        "152": -0.010697399900183065,
                        "153": 0.49169062551237186,
                        "154": 0.34397240687829594,
                        "155": 0.20122684562382812,
                        "156": 0.1250974407040587,
                        "157": -0.10215227761485157,
                        "158": -0.04886502923312765,
                        "159": 0.38766963608913096,
                        "16": 0.25409312888592506,
                        "160": -0.18173605260419137,
                        "161": -0.2584798415142896,
                        "162": 0.27921266897719105,
                        "163": 0.08578684142561105,
                        "164": -0.3528684536029378,
                        "165": -0.0053369144418457075,
                        "166": 0.12074200277642703,
                        "167": -0.1275084176456302,
                        "168": 0.03837887774739301,
                        "169": -0.14103589161110475,
                        "17": 0.23806169762399707,
                        "170": 0.17737350790248455,
                        "171": 0.0426885947203064,
                        "172": -0.38786011410415655,
                        "173": 0.08665040178353058,
                        "174": 0.2729724372564912,
                        "175": -0.2619074316393095,
                        "176": 0.12662221581490787,
                        "177": -0.6620070335185037,
                        "178": -0.03482991542468467,
                        "179": -0.05004207452010741,
                        "18": 0.25542289129756673,
                        "180": -0.2590261444366273,
                        "181": -0.09858825531970491,
                        "182": 0.11350787819072203,
                        "183": -0.49481643449368934,
                        "184": -0.0948712893084889,
                        "185": -0.20413157102819016,
                        "186": 0.2090471583091769,
                        "187": 0.5428859679246625,
                        "188": -0.08509803732336381,
                        "189": -0.06486654638889643,
                        "19": -0.7628656104968237,
                        "190": -0.3143146373401385,
                        "191": -0.4435863988196651,
                        "192": 0.21122426819355983,
                        "193": 0.21257043928256608,
                        "194": 0.06152682042749522,
                        "195": 0.4334546154739467,
                        "196": -0.04673857464701533,
                        "197": 0.43459973129683244,
                        "198": -0.36128111132103924,
                        "199": 0.049831050972611333,
                        "2": 0.3695410316810136,
                        "20": -0.3943593393010313,
                        "21": -0.23241202979790987,
                        "22": 0.5674818902623044,
                        "23": -0.26147767740256245,
                        "24": -0.23015882455507247,
                        "25": -0.5584727499018535,
                        "26": 0.03153160763525666,
                        "27": -0.5373038332861065,
                        "28": -0.26760203387405374,
                        "29": -0.2555314549452247,
                        "3": 0.47238967252662006,
                        "30": -0.10104024051163032,
                        "31": -0.39231157938044203,
                        "32": -0.03178471789736647,
                        "33": -0.09818182442303831,
                        "34": -0.3505964207641111,
                        "35": -0.1838296778241467,
                        "36": -0.05670821669448277,
                        "37": -0.5252178485761406,
                        "38": -0.1039174915004067,
                        "39": 0.32937658975600165,
                        "4": -0.5505137541865686,
                        "40": -0.3806345557401528,
                        "41": -0.28129358861570397,
                        "42": -0.3112093566310829,
                        "43": 0.40454349586181004,
                        "44": -0.18695889200950025,
                        "45": -0.03295133405993677,
                        "46": 0.33068047791820954,
                        "47": -0.009462627003921777,
                        "48": -0.07931501636646855,
                        "49": 0.1164521854289497,
                        "5": 0.35782389128788794,
                        "50": 0.051883618324528195,
                        "51": -0.0766539115092892,
                        "52": -0.16987852249787314,
                        "53": -0.2590516884504728,
                        "54": 0.3898830917932689,
                        "55": 0.3193491844268013,
                        "56": 0.25504472621505536,
                        "57": 0.5987875744872065,
                        "58": -0.22145434899577934,
                        "59": -0.6506727620750241,
                        "6": 0.6373518145904571,
                        "60": -0.08646846653404638,
                        "61": -0.6507535001343873,
                        "62": -0.07607114849281052,
                        "63": -0.002593214878802828,
                        "64": 0.24045653871595152,
                        "65": -0.2727723180908783,
                        "66": -0.23278701973457902,
                        "67": -0.42188383486006775,
                        "68": -0.21217480469041858,
                        "69": -0.3443921573945678,
                        "7": -0.26460199136976836,
                        "70": -0.2348725813684136,
                        "71": 0.10897853872074013,
                        "72": 0.062312366449942355,
                        "73": 0.15431645728872911,
                        "74": 0.09332664552578993,
                        "75": -0.04194983299549828,
                        "76": -0.45232198384163164,
                        "77": -0.30960436654952556,
                        "78": 0.1859141131312213,
                        "79": 0.1670122557856139,
                        "8": 0.17831433730740603,
                        "80": -0.008798325594532804,
                        "81": -0.10116965548940855,
                        "82": -0.043817105560004725,
                        "83": 0.6396517130950934,
                        "84": 0.31083889200530485,
                        "85": 0.3106543074032914,
                        "86": -0.29772625710599476,
                        "87": 0.5792421959344186,
                        "88": -0.5357486593638956,
                        "89": 0.3029401211930696,
                        "9": 0.0503099249820815,
                        "90": -0.050992414541469126,
                        "91": 0.6947211748769564,
                        "92": 0.5442486031262741,
                        "93": -0.44276796732998314,
                        "94": -0.5872089839812696,
                        "95": 0.5450398000138128,
                        "96": -0.7756340275946078,
                        "97": 0.3939019653418316,
                        "98": -0.4225767730516255,
                        "99": 0.20018387379136476
                    }
                },
                {
                    "depth": 8,
                    "sx": 5,
                    "sy": 5,
                    "w": {
                        "0": -0.20896733241707668,
                        "1": -0.47080172305699813,
                        "10": -0.2728068098388764,
                        "100": -0.03899606254624224,
                        "101": -0.2163236616853012,
                        "102": 0.207375992505348,
                        "103": -0.21712359896116085,
                        "104": -0.2532947848730279,
                        "105": 0.2912774269781361,
                        "106": -0.15230756174783439,
                        "107": 0.13132955423557643,
                        "108": 0.15841139035717358,
                        "109": 0.048418429786580966,
                        "11": 0.21412991513920823,
                        "110": -0.08737479864520747,
                        "111": -0.11608111199844327,
                        "112": -0.48230523596399116,
                        "113": 0.31859977608145434,
                        "114": 0.7658301809315574,
                        "115": 0.03422190978942869,
                        "116": -0.27926374994285025,
                        "117": 0.19662217400286972,
                        "118": 0.02210424262107017,
                        "119": -0.42251391746507605,
                        "12": 0.08931706325469925,
                        "120": 0.5107554300778865,
                        "121": 0.2966680794703384,
                        "122": -0.07402498005496495,
                        "123": 0.2093298993481576,
                        "124": 0.42770476254320755,
                        "125": -0.26811589711465117,
                        "126": -0.32333718696132124,
                        "127": 0.2653740085204241,
                        "128": 0.10170947220619476,
                        "129": 0.41198957983318685,
                        "13": -0.02637128724889551,
                        "130": -0.03623570340476213,
                        "131": 0.17416682089549093,
                        "132": 0.22005070786358982,
                        "133": 0.0830095521347536,
                        "134": 0.043742717146329164,
                        "135": 0.29029168871939914,
                        "136": -0.13312588877072642,
                        "137": 0.0248728808104137,
                        "138": -0.11376528945777348,
                        "139": -0.01415748115711612,
                        "14": 0.1493217813635673,
                        "140": 0.08666430500355435,
                        "141": 0.16155092559845205,
                        "142": -0.047036642764210185,
                        "143": -0.07877616930294058,
                        "144": -0.23127556574829652,
                        "145": 0.11877945692402127,
                        "146": -0.07462614261000022,
                        "147": -0.16897058564684722,
                        "148": -0.02446196656492872,
                        "149": -0.34033390571560845,
                        "15": -0.16192247831485485,
                        "150": 0.040628338926902687,
                        "151": -0.24525321833736774,
                        "152": -0.2498698562931291,
                        "153": 0.03340057171416264,
                        "154": 0.28370200269283724,
                        "155": -0.1632181672836732,
                        "156": -0.45859988102767124,
                        "157": 0.19795210073362315,
                        "158": -0.289453616924881,
                        "159": -0.20456804782565696,
                        "16": 0.18135256148415965,
                        "160": 0.002023126622023968,
                        "161": 0.40716910863591094,
                        "162": -0.15981854660001332,
                        "163": 0.2862897581222406,
                        "164": -0.22679222737270413,
                        "165": -0.1009935435922712,
                        "166": -0.020399413102994896,
                        "167": 0.0032600211997333723,
                        "168": -0.1379241569586213,
                        "169": 0.7433781510397562,
                        "17": 0.05165218383111143,
                        "170": -0.002133101410049496,
                        "171": 0.27788350851546445,
                        "172": -0.037277444305503005,
                        "173": -0.06689360811816177,
                        "174": 0.09943764020629456,
                        "175": 0.14778490586874668,
                        "176": -0.428099495867289,
                        "177": 0.35991899096745267,
                        "178": 0.004334233187083181,
                        "179": 0.14669863819916437,
                        "18": -0.34948255565420777,
                        "180": 0.007575822763940263,
                        "181": -0.004041542057827105,
                        "182": -0.07998841188613692,
                        "183": 0.18171745919842483,
                        "184": 0.02538810223939304,
                        "185": 0.048006404016814656,
                        "186": 0.06873471712049994,
                        "187": -0.5025282004784635,
                        "188": -0.40352406464471713,
                        "189": -0.36725425746563095,
                        "19": 0.05575259047421231,
                        "190": -0.11709067710234972,
                        "191": -0.030453760052983538,
                        "192": -0.1505386850662162,
                        "193": -0.1940165098142562,
                        "194": -0.05700104224282729,
                        "195": -0.27911590894070915,
                        "196": -0.11565739526007611,
                        "197": -0.16857681991836898,
                        "198": -0.07737455646660031,
                        "199": -0.1777817261018881,
                        "2": -0.10437230995165866,
                        "20": -0.08123866006507438,
                        "21": -0.05311803901381751,
                        "22": 0.21249392003872442,
                        "23": 0.3646394203749311,
                        "24": -0.2306067613986583,
                        "25": 0.0981502009089169,
                        "26": -0.13742488424197954,
                        "27": -0.019079061974415227,
                        "28": -0.03477513006626443,
                        "29": -0.3515046585239908,
                        "3": 0.2266573914444099,
                        "30": -0.17149635954915665,
                        "31": -0.07052305351249719,
                        "32": -0.3648923378438621,
                        "33": -0.04273459928443022,
                        "34": 0.5940055488480254,
                        "35": 0.541073050271307,
                        "36": -0.1635670849326008,
                        "37": -0.5157439657115503,
                        "38": -0.13959928274697705,
                        "39": 0.03269419566464669,
                        "4": -0.13491371506749447,
                        "40": -0.2351265412274925,
                        "41": -0.6077262611874427,
                        "42": -0.27222623720977696,
                        "43": -0.032657394477440746,
                        "44": -0.44142770974051954,
                        "45": 0.22656615847713665,
                        "46": 0.2561900197151267,
                        "47": -0.017247339283554642,
                        "48": -0.47698338580068794,
                        "49": -0.5846526524787063,
                        "5": 0.09745059353734437,
                        "50": -0.22090784561415422,
                        "51": 0.30987357703398416,
                        "52": -0.4502681851427297,
                        "53": 0.0514738963350065,
                        "54": 0.07733666582103679,
                        "55": -0.06687048897011683,
                        "56": -0.2860550881507974,
                        "57": 0.1044467746710412,
                        "58": -0.013621157072930472,
                        "59": 0.2507301630039044,
                        "6": 0.19326978548223786,
                        "60": 0.03373429354012501,
                        "61": 0.14863338193324102,
                        "62": 0.03463580382277225,
                        "63": -0.04121807586465633,
                        "64": -0.37818958483453546,
                        "65": 0.3574798413110179,
                        "66": 0.11854908760272505,
                        "67": -0.1789886189285394,
                        "68": 0.14604692450310808,
                        "69": 0.08270170260640096,
                        "7": -0.28035630184655563,
                        "70": -0.31394655454953885,
                        "71": -0.33621590049345323,
                        "72": -0.4673478866726281,
                        "73": 0.10831444392922253,
                        "74": 0.9215013406447706,
                        "75": 0.15010157931738072,
                        "76": -0.2892084556007534,
                        "77": -0.18098009191891598,
                        "78": -0.11011996012419493,
                        "79": -0.06905587958166956,
                        "8": -0.004853114614958949,
                        "80": -0.0778180430825113,
                        "81": -0.03054187238588937,
                        "82": -0.010110369880120816,
                        "83": 0.06059424413027738,
                        "84": 0.2507721670200028,
                        "85": 0.3096736807348858,
                        "86": 0.16470868240669623,
                        "87": 0.2592100190580009,
                        "88": 0.004548967081964546,
                        "89": -0.1416701316886051,
                        "9": -0.36452420258309653,
                        "90": 0.13234609341965234,
                        "91": -0.18685279665456542,
                        "92": 0.2033591520655925,
                        "93": -0.038080956723417346,
                        "94": 0.26590652014532057,
                        "95": 0.49388389676139544,
                        "96": 0.25859162820514253,
                        "97": 0.2095843541850085,
                        "98": -0.0342523568750077,
                        "99": 0.08865563053928323
                    }
                },
                {
                    "depth": 8,
                    "sx": 5,
                    "sy": 5,
                    "w": {
                        "0": -0.26151326516765105,
                        "1": 0.18042243954700127,
                        "10": -0.3794937639158433,
                        "100": -0.22890695584621493,
                        "101": -0.24228396228053498,
                        "102": 0.2452838627253064,
                        "103": -0.04734077017211822,
                        "104": -0.3109602879152636,
                        "105": -0.2928549191645297,
                        "106": -0.5706915445731792,
                        "107": 0.024449457592794526,
                        "108": 0.1617177962769474,
                        "109": -0.22939945275979373,
                        "11": 0.029557040034213083,
                        "110": 0.2841493118161816,
                        "111": 0.0807548089261127,
                        "112": -0.12240651830515525,
                        "113": 0.0492057152926507,
                        "114": -0.27105323252096014,
                        "115": 0.17731675826139773,
                        "116": 0.1369044364429327,
                        "117": 0.31362053063705664,
                        "118": 0.2723156369900865,
                        "119": -0.0425858817813565,
                        "12": -0.371316078139031,
                        "120": 0.18153946914999264,
                        "121": -0.1329635839333255,
                        "122": -0.08660201806758604,
                        "123": -0.05283914976568028,
                        "124": -0.2906514235541948,
                        "125": 0.5703227941675798,
                        "126": 0.4549950005222068,
                        "127": -0.10204839590187678,
                        "128": -0.05857620822624355,
                        "129": -0.37066676333067666,
                        "13": -0.5646125559123453,
                        "130": -0.23291061803597846,
                        "131": 0.07640056518362205,
                        "132": -0.06653437733858783,
                        "133": 0.18014549599908927,
                        "134": 0.22657780702202912,
                        "135": -0.24236897393816084,
                        "136": -0.24890489979577188,
                        "137": -0.22478448186669486,
                        "138": -0.21689825789697456,
                        "139": 0.10722396746698158,
                        "14": -0.37650513677206676,
                        "140": 0.0882571564797165,
                        "141": 0.15654672372602224,
                        "142": -0.13062345438750111,
                        "143": -0.12910332229567717,
                        "144": -0.32308280118382715,
                        "145": -0.30039727184210835,
                        "146": -0.3256316253381579,
                        "147": 0.059326811824728175,
                        "148": -0.3076462230647001,
                        "149": -0.2352409502796258,
                        "15": -0.33076402570491975,
                        "150": -0.13004694217476168,
                        "151": -0.11072281707064745,
                        "152": -0.23040081294506523,
                        "153": -0.09645607467474543,
                        "154": -0.44963914707724906,
                        "155": -0.0958367336288287,
                        "156": -0.07264068419397154,
                        "157": 0.04034099575689654,
                        "158": -0.1522917803345719,
                        "159": -0.19420821944974373,
                        "16": -0.17304738403791675,
                        "160": -0.10750105869451383,
                        "161": -0.13100393445015374,
                        "162": -0.2826936896005519,
                        "163": -0.4224629099747763,
                        "164": 0.09224658305583222,
                        "165": -0.04994341746997419,
                        "166": -0.19638719831681548,
                        "167": -0.2467711161915676,
                        "168": -0.07767682982232547,
                        "169": -0.4869121677232247,
                        "17": -0.40801347879449246,
                        "170": -0.2514746718463238,
                        "171": -0.17321508715482978,
                        "172": 0.1465275927580174,
                        "173": 0.2522835001038176,
                        "174": -0.15354580309499855,
                        "175": -0.33355672661322916,
                        "176": -0.05083085981270093,
                        "177": -0.45231039838667203,
                        "178": -0.07475321046654368,
                        "179": -0.21687181359277627,
                        "18": -0.10713877774842037,
                        "180": 0.10126706837857326,
                        "181": 0.1841964673533137,
                        "182": -0.41379392793714054,
                        "183": -0.17510852447988395,
                        "184": -0.12333864380732822,
                        "185": -0.34308101090044013,
                        "186": -0.26023455716089405,
                        "187": -0.1711672898353074,
                        "188": -0.204695560002252,
                        "189": 0.02050668124574262,
                        "19": 0.05478148609171316,
                        "190": -0.30013916567032106,
                        "191": -0.13285755620455278,
                        "192": -0.08906421910846367,
                        "193": -0.22584459736916046,
                        "194": -0.33753135702983006,
                        "195": -0.2101874609112519,
                        "196": -0.09782084071124472,
                        "197": -0.01444136675552698,
                        "198": -0.25677036993777047,
                        "199": -0.07930871333565939,
                        "2": -0.25697841628900553,
                        "20": 0.20584146614379734,
                        "21": -0.32696797865381827,
                        "22": -0.30130017508956697,
                        "23": 0.01891987677008894,
                        "24": 0.002035497355084848,
                        "25": -0.49643960230731754,
                        "26": -0.3670243459332394,
                        "27": -0.14949106258389497,
                        "28": 0.10606475624302032,
                        "29": -0.15529820861575105,
                        "3": -0.08196735323100669,
                        "30": -0.04921889243850228,
                        "31": -0.03130088057856062,
                        "32": 0.09724179698787898,
                        "33": -0.2799989611294063,
                        "34": -0.09207851519439142,
                        "35": -0.15426857289182885,
                        "36": -0.5175384515855528,
                        "37": -0.020857957922294494,
                        "38": -0.41314976923985613,
                        "39": -0.09425537347184078,
                        "4": 0.10822948995674217,
                        "40": 0.09431625130228524,
                        "41": 0.23616623565494432,
                        "42": -0.18988881063227336,
                        "43": 0.2303932784160395,
                        "44": -0.011259459030943594,
                        "45": -0.2538864900115396,
                        "46": -0.5523177635288233,
                        "47": -0.0957836416518296,
                        "48": 0.3566533570283165,
                        "49": -0.10310851758168464,
                        "5": -0.2096318489677736,
                        "50": -0.20822633557620954,
                        "51": -0.02490422486430617,
                        "52": 0.24876327247636443,
                        "53": -0.23930603053151517,
                        "54": -0.21756501593550043,
                        "55": -0.07492349858131196,
                        "56": 0.2420080453526845,
                        "57": -0.12843183232343577,
                        "58": -0.10836712604305085,
                        "59": -0.16343451241167609,
                        "6": -0.23682237823951388,
                        "60": 0.2633964903230828,
                        "61": 0.01392612025364793,
                        "62": -0.0708807228047504,
                        "63": 0.41241874295200914,
                        "64": 0.15157998428104605,
                        "65": -0.3810211549784767,
                        "66": -0.26268783424504855,
                        "67": 0.09293647793579934,
                        "68": 0.29761510491972,
                        "69": -0.23026626095195882,
                        "7": -0.22913296587525836,
                        "70": 0.10179183462751391,
                        "71": 0.6156407772253618,
                        "72": 0.44502906818801463,
                        "73": -0.009950151854525502,
                        "74": -0.07827465029512201,
                        "75": 0.09913528766125602,
                        "76": -0.2214561942688983,
                        "77": 0.26889328885745045,
                        "78": 0.16186384685249972,
                        "79": 0.39002271767807745,
                        "8": -0.03985185428862613,
                        "80": -0.0035467827283016066,
                        "81": 0.2268901023354665,
                        "82": 0.03402740631751806,
                        "83": 0.20353027545288627,
                        "84": -0.5495818909620908,
                        "85": 0.29033135850544267,
                        "86": -0.04484514851404223,
                        "87": -0.06212206909289611,
                        "88": 0.0877423262194044,
                        "89": 0.047466373445851834,
                        "9": -0.0602070853525518,
                        "90": -0.01894060471759959,
                        "91": 0.3861860005002746,
                        "92": -0.5532366078977687,
                        "93": 0.0560128768453511,
                        "94": 0.3328299296278115,
                        "95": -0.01930898446340037,
                        "96": 0.16502597343085773,
                        "97": -0.0681556627077998,
                        "98": -0.26350492175801754,
                        "99": 0.47174000639065183
                    }
                },
                {
                    "depth": 8,
                    "sx": 5,
                    "sy": 5,
                    "w": {
                        "0": -0.5362549893407415,
                        "1": 0.10831647144600162,
                        "10": -0.35177372535395157,
                        "100": -0.13763042225582908,
                        "101": 0.03516545800212064,
                        "102": 0.373680521362041,
                        "103": 0.022321978731882856,
                        "104": -0.2070010785476167,
                        "105": 0.004031630220705866,
                        "106": 0.14581069420625312,
                        "107": -0.08398151042048942,
                        "108": -0.16625714632219935,
                        "109": -0.08352642230906317,
                        "11": -0.018057865473120147,
                        "110": 0.2959371572340837,
                        "111": -0.3293831599850299,
                        "112": -0.0036864450039051783,
                        "113": -0.5129692465234645,
                        "114": -0.04217779900756898,
                        "115": -0.3077794323673567,
                        "116": -0.08702809644486222,
                        "117": 0.04489279626928846,
                        "118": 0.8485657976551771,
                        "119": -0.33625328407276933,
                        "12": 0.2980525700307934,
                        "120": -0.10079874297391611,
                        "121": 0.3289108632813135,
                        "122": -0.017970600575615354,
                        "123": -0.03336666464339972,
                        "124": -0.13697480705189335,
                        "125": -0.7490664475603203,
                        "126": -0.09935528123952787,
                        "127": -0.0327797701407498,
                        "128": -0.3905189712566536,
                        "129": 0.39716575928967995,
                        "13": -0.28745381846277623,
                        "130": -0.2054387586343739,
                        "131": 0.0679683467471225,
                        "132": 0.14450425389286176,
                        "133": -0.1849576537171943,
                        "134": 0.24231925859154477,
                        "135": -0.04948897415416957,
                        "136": -0.05951308682010163,
                        "137": 0.39300087635421965,
                        "138": 0.2973605570014552,
                        "139": 0.03483675860528032,
                        "14": -0.3413887024202922,
                        "140": -0.04715439873258513,
                        "141": -0.06617589191848766,
                        "142": 0.25748761083358923,
                        "143": -0.005945217292429537,
                        "144": -0.26021397370394195,
                        "145": 0.36223054424976175,
                        "146": 0.2810717604487229,
                        "147": -0.2308561410748605,
                        "148": -0.13622348778030025,
                        "149": -0.34458288067366033,
                        "15": -0.35967852764246366,
                        "150": 0.2775389867748501,
                        "151": -0.23798634932947296,
                        "152": -0.09183892142992088,
                        "153": -0.3547129360709478,
                        "154": 0.3637355346518041,
                        "155": -0.3024349228943087,
                        "156": -0.19722685881907373,
                        "157": -0.15819149538484753,
                        "158": 0.10471119270557529,
                        "159": -0.23391895697798779,
                        "16": 0.059770595402935084,
                        "160": -0.1300795939094136,
                        "161": 0.18459098074571165,
                        "162": 0.24620071362878526,
                        "163": -0.2816508996946717,
                        "164": -0.7895770862514288,
                        "165": -0.09636151467354542,
                        "166": 0.2563954502588697,
                        "167": -0.27474390230227436,
                        "168": 0.017146445206542616,
                        "169": 0.030267101337259683,
                        "17": -0.3647795487416312,
                        "170": -0.16231190816343247,
                        "171": -0.2745120894629717,
                        "172": -0.23147756922298401,
                        "173": 0.042415073551783866,
                        "174": 0.23953569518176662,
                        "175": -0.2985900477762909,
                        "176": -0.35615449225576495,
                        "177": 0.11839473260838208,
                        "178": -0.3783997650587921,
                        "179": -0.0018423198758876446,
                        "18": -0.4703619234999477,
                        "180": -0.17270933204320565,
                        "181": -0.008999385805392087,
                        "182": -0.03219469481109467,
                        "183": -0.34096112404631745,
                        "184": -0.26537268772023087,
                        "185": 0.4174181174535241,
                        "186": -0.18122479345686726,
                        "187": 0.262332745679081,
                        "188": 0.10069851807958491,
                        "189": -0.12691183953794125,
                        "19": -0.018934113602068703,
                        "190": 0.12337288508000345,
                        "191": -0.380020508370625,
                        "192": -0.46526587751223786,
                        "193": -0.029548419093036064,
                        "194": 0.15780252610225107,
                        "195": -0.029143164023535527,
                        "196": 0.21007643228841613,
                        "197": 0.05735421961359898,
                        "198": -0.2428684043751131,
                        "199": -0.3446958014070305,
                        "2": -0.17705158529617543,
                        "20": 0.28773508156378946,
                        "21": 0.07825409629940214,
                        "22": -0.32354504972915965,
                        "23": -0.11393735266690422,
                        "24": 0.17855439945333385,
                        "25": -0.46019866431017475,
                        "26": -0.3959843515373956,
                        "27": 0.09601972191613435,
                        "28": 0.15316781035915883,
                        "29": 0.37826728004511373,
                        "3": -0.08631453797178763,
                        "30": -0.15300439334157528,
                        "31": -0.10919084121004953,
                        "32": -0.2514302931801076,
                        "33": -0.5708253659577053,
                        "34": -0.27403766788985134,
                        "35": -0.24198308199648055,
                        "36": -0.05550966198379233,
                        "37": 0.4138808138337526,
                        "38": -0.22023925369313976,
                        "39": -0.31343632233269486,
                        "4": 0.24136233916937175,
                        "40": 0.044043638949436144,
                        "41": -0.09652736801918567,
                        "42": -0.1272918256236808,
                        "43": 0.1865794423797359,
                        "44": 0.37118147057582007,
                        "45": -0.3888405276969418,
                        "46": -0.387535832273167,
                        "47": 0.1877799280695363,
                        "48": 0.42351997322870866,
                        "49": -0.22882392063772342,
                        "5": -0.24059411313557363,
                        "50": -0.1472586666691855,
                        "51": 0.15585380077526054,
                        "52": 0.11592383551669436,
                        "53": -0.14185010150444374,
                        "54": -0.28337541763990065,
                        "55": 0.0016842070278430838,
                        "56": 0.37485984066874284,
                        "57": -0.3586120012867393,
                        "58": -0.06310340828567906,
                        "59": 0.11312130347935898,
                        "6": -0.2704571169739281,
                        "60": -0.08963560423630236,
                        "61": 0.2020736061569815,
                        "62": 0.019261919500049386,
                        "63": 0.07051950007490913,
                        "64": 0.16869334078672102,
                        "65": -0.10477458419018294,
                        "66": -0.2728348572631858,
                        "67": -0.01819104201406415,
                        "68": 0.07558127298517993,
                        "69": -0.0493987671218742,
                        "7": -0.030341897141258307,
                        "70": 0.4101486997871969,
                        "71": 0.24843866735894155,
                        "72": 0.6277036139491954,
                        "73": -0.017408222995081657,
                        "74": -0.02311706185440662,
                        "75": -0.3379176429815335,
                        "76": 0.1676591540309158,
                        "77": -0.0794450366472927,
                        "78": 0.2834702856291551,
                        "79": 0.6457119069320554,
                        "8": -0.16892715705899197,
                        "80": 0.08557253396975038,
                        "81": -0.07149221047009084,
                        "82": -0.2829024832041961,
                        "83": -0.08021114958052611,
                        "84": 0.13368354405780083,
                        "85": -0.5107604227520616,
                        "86": -0.12197908835092738,
                        "87": 0.12856131112443492,
                        "88": 0.06490723163020111,
                        "89": -0.09000794709396504,
                        "9": 0.15330978703340858,
                        "90": -0.20035060734906182,
                        "91": -0.0589216059885699,
                        "92": 0.05722511409506282,
                        "93": 0.007207982457761076,
                        "94": -0.09811466541733839,
                        "95": -0.019784688217819518,
                        "96": 0.13509863887115092,
                        "97": 0.1888922684747819,
                        "98": 0.1376189700665653,
                        "99": 0.32794240523737384
                    }
                },
                {
                    "depth": 8,
                    "sx": 5,
                    "sy": 5,
                    "w": {
                        "0": -0.2857506592603829,
                        "1": -0.24093076974944655,
                        "10": 0.11961302252546777,
                        "100": 0.01104441059536944,
                        "101": 0.33297719790554153,
                        "102": 0.10195857602897568,
                        "103": -0.2107713009904915,
                        "104": -0.051447684134704616,
                        "105": -0.2907558324902571,
                        "106": 0.31404173651621226,
                        "107": -0.5226214750941282,
                        "108": -0.20608383087365564,
                        "109": 0.08448800100665119,
                        "11": -0.01095475474077626,
                        "110": 0.6141323782445288,
                        "111": -0.20171753222033395,
                        "112": 0.09834419059478103,
                        "113": -0.9310699827980788,
                        "114": -0.06228646660763881,
                        "115": -0.31506106974714165,
                        "116": -0.180978772560032,
                        "117": 0.21042552454868302,
                        "118": 0.023331425189554215,
                        "119": -0.17839708951764713,
                        "12": 0.35829093088828806,
                        "120": 0.3396172890217218,
                        "121": 0.5590039704128316,
                        "122": 0.31515189825996864,
                        "123": -0.31938762162354256,
                        "124": -0.08430068775657168,
                        "125": 0.16327312690191423,
                        "126": 0.17075618878457985,
                        "127": -0.1527039462477492,
                        "128": -0.2624175170732289,
                        "129": -0.07547330735766744,
                        "13": 0.21042135799224385,
                        "130": -0.12662830102176112,
                        "131": -0.4431223022582518,
                        "132": -0.2728096074309598,
                        "133": -0.06321444172718418,
                        "134": -0.03654699979760279,
                        "135": -0.10428321709062255,
                        "136": -0.2313353200503215,
                        "137": -0.032447413589565086,
                        "138": -0.24601562223712378,
                        "139": -0.3502525293079754,
                        "14": -0.3607357172049132,
                        "140": -0.19253861276232365,
                        "141": 0.17422074132872042,
                        "142": -0.05449784855912415,
                        "143": -0.06364383545938442,
                        "144": -0.11797995847445286,
                        "145": -0.36083323697797653,
                        "146": -0.22076944404097038,
                        "147": -0.2160079056065166,
                        "148": -0.24241874458062604,
                        "149": 0.10383497170952592,
                        "15": 0.046797519642411585,
                        "150": 0.2305626731159811,
                        "151": 0.08561436525044784,
                        "152": -0.16844452942465185,
                        "153": -0.2946591025172547,
                        "154": -0.01962249625477138,
                        "155": -0.43781538364673317,
                        "156": -0.34853680106090656,
                        "157": 0.574571788662478,
                        "158": 0.31806838873766796,
                        "159": -0.08352059314590363,
                        "16": -0.40920536835384297,
                        "160": 0.36081805006565104,
                        "161": 0.42093654136452,
                        "162": -0.03634410923713975,
                        "163": -0.06724013864736078,
                        "164": 0.1935586870611042,
                        "165": -0.26359580613964695,
                        "166": -0.039927219431830537,
                        "167": 0.06093514065672408,
                        "168": 0.032666816569209695,
                        "169": 0.32219092209772615,
                        "17": 0.0004810765253749085,
                        "170": -0.013884413879221492,
                        "171": -0.3998635296258376,
                        "172": 0.010051409810415798,
                        "173": -0.3862913300223203,
                        "174": 0.10781287633581244,
                        "175": -0.15063971538672502,
                        "176": -0.3093664991720923,
                        "177": 0.1467847603462513,
                        "178": -0.23272819227591124,
                        "179": -0.3148111229153248,
                        "18": -0.18908059648052275,
                        "180": -0.19944649201757797,
                        "181": 0.07608759257550912,
                        "182": -0.17980723256941714,
                        "183": 0.2757943640360638,
                        "184": -0.10920659224573566,
                        "185": -0.39237509051362546,
                        "186": -0.0766113101641804,
                        "187": -0.19610290239129563,
                        "188": 0.1827591882797243,
                        "189": 0.19224965464002866,
                        "19": -0.30083808837659826,
                        "190": -0.19500521302109172,
                        "191": 0.5491867047057564,
                        "192": -0.23449832642670773,
                        "193": 0.09645834868292598,
                        "194": -0.239019396604224,
                        "195": -0.02836374086266174,
                        "196": -0.044647764368320415,
                        "197": 0.32093053259410603,
                        "198": -0.0740388914488513,
                        "199": 0.12010146084805581,
                        "2": -0.12115744217581166,
                        "20": 0.33589491388084786,
                        "21": 0.04130816699768055,
                        "22": -0.06683476456482497,
                        "23": 0.6268639162153694,
                        "24": -0.36297792005346424,
                        "25": 0.003683047684448151,
                        "26": -0.31736230202015575,
                        "27": -0.1532205666323754,
                        "28": 0.38550967369660744,
                        "29": 0.3419749464145544,
                        "3": 0.22875293263323668,
                        "30": -0.17813974577395292,
                        "31": 0.20031700418660464,
                        "32": -0.07936737219930588,
                        "33": -0.17647087995823832,
                        "34": -0.14712469337461967,
                        "35": 0.28463721338128306,
                        "36": 0.4507692982784181,
                        "37": 0.06613355487516784,
                        "38": 0.27101764905339004,
                        "39": 0.05208656778991774,
                        "4": 0.42935945750088317,
                        "40": 0.07538092249324406,
                        "41": -0.012073313007150116,
                        "42": 0.005674145354102803,
                        "43": -0.045710133939164115,
                        "44": -0.4831306588715018,
                        "45": 0.27075323828921116,
                        "46": -0.1492731757056048,
                        "47": -0.12690449689612607,
                        "48": -0.31955368840849296,
                        "49": -0.0020397382753985535,
                        "5": 0.29121755362942653,
                        "50": 0.05850774206779967,
                        "51": -0.14204119228936846,
                        "52": -0.08151469160527146,
                        "53": 0.484679355520123,
                        "54": -0.02026620182016025,
                        "55": -0.007965268428243945,
                        "56": -0.29638379509520124,
                        "57": -0.11001817149073248,
                        "58": 0.5290734530374624,
                        "59": -0.08210796913443864,
                        "6": -0.15960994590312305,
                        "60": -0.03344734367469574,
                        "61": 0.006790958980572966,
                        "62": -0.1248319351499181,
                        "63": 0.32107408342219645,
                        "64": -0.3047279242602381,
                        "65": 0.08007049436893456,
                        "66": -0.15795569217781347,
                        "67": -0.30182134025203505,
                        "68": 0.05738557459581664,
                        "69": -0.251633868413019,
                        "7": -0.004865959415066855,
                        "70": -0.38250169095555014,
                        "71": -0.1365401025627255,
                        "72": -0.08663142509132747,
                        "73": -0.4130140630104192,
                        "74": -0.13277921949188612,
                        "75": 0.06199011820212879,
                        "76": -0.09923219962776393,
                        "77": -0.19131852542096134,
                        "78": 0.10626101699680124,
                        "79": -0.138694041057083,
                        "8": -0.32467743809875893,
                        "80": 0.7425184441040964,
                        "81": 0.24644427339406738,
                        "82": -0.10337285700160467,
                        "83": -0.32202767595614695,
                        "84": -0.47022747735945736,
                        "85": -0.0759202682356993,
                        "86": 0.23410457760823314,
                        "87": -0.0862260458521061,
                        "88": 0.05933660143421005,
                        "89": 0.040936895212139356,
                        "9": -0.3155071248525006,
                        "90": -0.13078381833056676,
                        "91": -0.4595578453397687,
                        "92": -0.3160620021152906,
                        "93": -0.2369238675301277,
                        "94": -0.20937381714291936,
                        "95": -0.12266337673409876,
                        "96": -0.2795608673843195,
                        "97": -0.10116438519366062,
                        "98": 0.4861518089338861,
                        "99": -0.21952144385302136
                    }
                },
                {
                    "depth": 8,
                    "sx": 5,
                    "sy": 5,
                    "w": {
                        "0": -0.1834643060833945,
                        "1": -0.49477501757421294,
                        "10": 0.12006161034541948,
                        "100": -0.21288295226584303,
                        "101": -0.12027114378018208,
                        "102": -0.13261129330817625,
                        "103": -0.06288626456941704,
                        "104": 0.08451184051049647,
                        "105": 0.1344254169996882,
                        "106": 0.3816100574254403,
                        "107": -0.2025077856575457,
                        "108": -0.3166089155855204,
                        "109": -0.18766410415925017,
                        "11": 0.12938430054830996,
                        "110": 0.30856903275066627,
                        "111": 0.1798463643597851,
                        "112": -0.025629791647935,
                        "113": 0.21100379612032755,
                        "114": 0.2167722953654215,
                        "115": -0.33678478855210786,
                        "116": -0.36177920785580714,
                        "117": -0.4503861793302623,
                        "118": 0.1776726679211514,
                        "119": -0.05166182919678094,
                        "12": 0.30796428259163555,
                        "120": 0.5356868943509073,
                        "121": -0.21692587512953646,
                        "122": -0.11434199987696302,
                        "123": -0.08405483986149272,
                        "124": -0.5977866844475144,
                        "125": -0.1481412001117527,
                        "126": -0.26431335163014,
                        "127": -0.22927522104168271,
                        "128": 0.2889875225108536,
                        "129": -0.38831669039954586,
                        "13": -0.26892598346711255,
                        "130": -0.3427661432683646,
                        "131": 0.11915268989009214,
                        "132": -0.07802027487714552,
                        "133": -0.12766154886392958,
                        "134": -0.0784359216392624,
                        "135": -0.15753073118714161,
                        "136": 0.25860365750599656,
                        "137": -0.15116276211867521,
                        "138": -0.26014960338234855,
                        "139": 0.14896379229593254,
                        "14": -0.1857416032256495,
                        "140": 0.03456582273022778,
                        "141": -0.29536531567492974,
                        "142": -0.1412010298403992,
                        "143": -0.06433462497771712,
                        "144": 0.45061245710770326,
                        "145": 0.6218826977052361,
                        "146": 0.2798782364677139,
                        "147": -0.0025035462953049248,
                        "148": -0.18057418559297278,
                        "149": -0.32353123509584447,
                        "15": -0.03717527037304577,
                        "150": 0.0036735843167115118,
                        "151": 0.20019729705947542,
                        "152": -0.19148276694838856,
                        "153": 0.13953627617504863,
                        "154": 0.15665434936430137,
                        "155": -0.11761781312735906,
                        "156": -0.06236816100080359,
                        "157": -0.23965794984145056,
                        "158": -0.09287351985586699,
                        "159": -0.06179627510234114,
                        "16": -0.0010086830945599309,
                        "160": 0.024962454069760835,
                        "161": -0.1834308524786736,
                        "162": -0.09329885940225524,
                        "163": 0.011766468652289905,
                        "164": -0.2681267102166529,
                        "165": 0.039790463219997366,
                        "166": 0.055965884454697856,
                        "167": -0.012907420088529877,
                        "168": -0.20538187019888382,
                        "169": -0.181101278600148,
                        "17": -0.018890592902980032,
                        "170": -0.2670769997838721,
                        "171": 0.3785519603598285,
                        "172": 0.19196965379388659,
                        "173": -0.16956466343263318,
                        "174": -0.1067385057012932,
                        "175": -0.03304074590839563,
                        "176": -0.03845984398061597,
                        "177": 0.4615117193966609,
                        "178": -0.4569386735285874,
                        "179": 0.3975982987108286,
                        "18": 0.02472471485824408,
                        "180": -0.025262254012591193,
                        "181": -0.030128240137424177,
                        "182": -0.22785443867047686,
                        "183": 0.01856887523158038,
                        "184": -0.11128475033991307,
                        "185": 0.5116111149877905,
                        "186": -0.14962941826181203,
                        "187": 0.3389454151747971,
                        "188": 0.06348634859336352,
                        "189": -0.02889883710608457,
                        "19": 0.34232728003063484,
                        "190": -0.059572155089284956,
                        "191": 0.053339375255963925,
                        "192": -0.30720910217008524,
                        "193": -0.29917234433405265,
                        "194": 0.09058526087086381,
                        "195": -0.056327542656651255,
                        "196": -0.18041882319990077,
                        "197": -0.38556130332602906,
                        "198": -0.08121738415174885,
                        "199": -0.013893416067800698,
                        "2": 0.11755780934992496,
                        "20": 0.39428858044143283,
                        "21": 0.06596028872681386,
                        "22": 0.0252650234711234,
                        "23": 0.04217626732097801,
                        "24": 0.29966969981071584,
                        "25": 0.12393628063062319,
                        "26": 0.031232463204732958,
                        "27": 0.33430889527970914,
                        "28": 0.04473632226267968,
                        "29": 0.16557321576705716,
                        "3": -0.1873013967914138,
                        "30": 0.1216522022222813,
                        "31": -0.07711501021642879,
                        "32": 0.19705191927575028,
                        "33": 0.17113975692366196,
                        "34": -0.045365268299229135,
                        "35": 0.3077807234538142,
                        "36": -0.3278701594646122,
                        "37": 0.180994074143949,
                        "38": 0.07892758870753258,
                        "39": -0.22593741245084606,
                        "4": 0.29326060667610065,
                        "40": -0.16436965446058308,
                        "41": -0.40383985234733244,
                        "42": -0.047513123919566934,
                        "43": -0.23084048544481406,
                        "44": -0.35018458022492527,
                        "45": 0.09155726141047216,
                        "46": -0.2827477444990419,
                        "47": -0.15680540464443837,
                        "48": -0.27705682594672104,
                        "49": -0.36986525813334253,
                        "5": -0.1915773454222672,
                        "50": -0.029125659381404337,
                        "51": 0.024427650812672657,
                        "52": -0.203054028190273,
                        "53": 0.1524783802798659,
                        "54": -0.23758534511716284,
                        "55": -0.003417381258405758,
                        "56": -0.07934468238319947,
                        "57": -0.07236539006849384,
                        "58": 0.21565074306671272,
                        "59": -0.18587565128546674,
                        "6": -0.14827057757221448,
                        "60": -0.30128595734512625,
                        "61": 0.2336089787604994,
                        "62": -0.017581254463529903,
                        "63": 0.014515071642720529,
                        "64": 0.08681300117452692,
                        "65": 0.21887024150970352,
                        "66": 0.24822132599005337,
                        "67": -0.1072044703436954,
                        "68": -0.3786995992428984,
                        "69": 0.0626118241009407,
                        "7": 0.19204361124211838,
                        "70": 0.3168629351254437,
                        "71": 0.012819526471816426,
                        "72": 0.21405154098919357,
                        "73": 0.2538684474848989,
                        "74": 0.3719722399407923,
                        "75": -0.08384364178056578,
                        "76": -0.09959676883376219,
                        "77": 0.03142936214639885,
                        "78": 0.3464578880436956,
                        "79": -0.12188183476006223,
                        "8": -0.18861562420830724,
                        "80": 0.23517531645743409,
                        "81": -0.41742363499577895,
                        "82": -0.09103835816321526,
                        "83": 0.08390005301852758,
                        "84": -0.5622493693158681,
                        "85": 0.11533882671976611,
                        "86": -0.15949210676489994,
                        "87": -0.0698637914259176,
                        "88": 0.03848016848730243,
                        "89": -0.387906990236495,
                        "9": -0.2778302273241166,
                        "90": -0.055383885235028414,
                        "91": 0.11220419078029456,
                        "92": -0.2573762929013931,
                        "93": 0.0851007440184634,
                        "94": -0.10858030946148711,
                        "95": -0.07854426553716422,
                        "96": -0.012966665564207887,
                        "97": -0.22563046887065458,
                        "98": 0.07471616434894672,
                        "99": -0.07893700698523938
                    }
                },
                {
                    "depth": 8,
                    "sx": 5,
                    "sy": 5,
                    "w": {
                        "0": 0.4249473251893306,
                        "1": 0.6326338775837389,
                        "10": 0.18371316429079917,
                        "100": 0.12653079607995543,
                        "101": -0.37280631298272093,
                        "102": -0.21944040928007738,
                        "103": 0.22303377955682807,
                        "104": -0.15040460320009172,
                        "105": 0.10185406108855079,
                        "106": 0.327439211648675,
                        "107": 0.30015198067253157,
                        "108": 0.10992102304081608,
                        "109": 0.06166661900340072,
                        "11": -0.0772989033256895,
                        "110": 0.6280402802795708,
                        "111": 0.06940294913587504,
                        "112": -0.027704190294252546,
                        "113": 0.5645578261612897,
                        "114": -0.07135525107284867,
                        "115": 0.0320315912575187,
                        "116": -0.010634443810157625,
                        "117": -0.06430280595257389,
                        "118": -0.1430359845145297,
                        "119": -0.12809747554752257,
                        "12": -0.12647207825627013,
                        "120": 0.1298807703822257,
                        "121": 0.17359393930372877,
                        "122": -0.3512410726424649,
                        "123": 0.08503658625239875,
                        "124": 0.06428718010423666,
                        "125": -0.27812466226021854,
                        "126": -0.23534140280844748,
                        "127": -0.1386327123603553,
                        "128": 0.5120167313203184,
                        "129": -0.18217817677918274,
                        "13": -0.7142589184208531,
                        "130": -0.29240658839802414,
                        "131": -0.0546487211975547,
                        "132": -0.4312653147685503,
                        "133": -0.3293734312497215,
                        "134": -0.533704572308974,
                        "135": -0.06599388959782945,
                        "136": 0.3432313897240911,
                        "137": -0.2994877689869826,
                        "138": -0.07259586456142088,
                        "139": -0.15888129713011026,
                        "14": 0.3509370207357752,
                        "140": -0.5250201968943453,
                        "141": 0.11226648266631348,
                        "142": 0.14686623195416065,
                        "143": 0.18063419182316756,
                        "144": 0.15077847799914834,
                        "145": -0.18977469451237042,
                        "146": -0.3639116967297734,
                        "147": -0.24109106212071804,
                        "148": 0.18357934646640803,
                        "149": 0.25228395732578035,
                        "15": 0.21127436107239775,
                        "150": 0.15810769888081896,
                        "151": 0.21517658525793482,
                        "152": 0.06700592598266608,
                        "153": 0.094359175608759,
                        "154": -0.3676062149474289,
                        "155": -0.5929934186081265,
                        "156": -0.02306306645847981,
                        "157": -0.1438247817868067,
                        "158": -0.2499584340957272,
                        "159": 0.44134852388575624,
                        "16": -0.2968217245664608,
                        "160": 0.0577537887252975,
                        "161": 0.2960158116322175,
                        "162": -0.38366471325529933,
                        "163": 0.14963725723536478,
                        "164": 0.08221459336478149,
                        "165": -0.3247934313943627,
                        "166": -0.2867133524005315,
                        "167": 0.06009270049276643,
                        "168": 0.18858920566547577,
                        "169": 0.14443061546348862,
                        "17": 0.10288401079014944,
                        "170": -0.2322524995567285,
                        "171": 0.1961160706978231,
                        "172": -0.07395730924584053,
                        "173": -0.032040813522485195,
                        "174": 0.33805676740108226,
                        "175": 0.05612828256409442,
                        "176": 0.07657438645415122,
                        "177": 0.013952358636338072,
                        "178": -0.5991660975101221,
                        "179": 0.5981731614046323,
                        "18": 0.16972685773196633,
                        "180": 0.006090763108334307,
                        "181": 0.29377919859876356,
                        "182": 0.8425920711293345,
                        "183": 0.14760198143855432,
                        "184": -0.2551151283564915,
                        "185": -0.5481327083551475,
                        "186": -0.5743685369079413,
                        "187": 0.17111644211012253,
                        "188": 0.4028371710676308,
                        "189": 0.4732799852711019,
                        "19": -0.0586852618140254,
                        "190": -0.20975339409297653,
                        "191": 0.43735971277608976,
                        "192": -0.06900858682237256,
                        "193": -0.15643187804825365,
                        "194": -0.25072418572035676,
                        "195": -0.0622558593061212,
                        "196": 0.5138825286896056,
                        "197": -0.3901819316184903,
                        "198": -0.49125570851139916,
                        "199": 0.2942302985179311,
                        "2": 0.4754423174710276,
                        "20": -0.019647007957344916,
                        "21": -0.6822585305819383,
                        "22": -0.05433278172437941,
                        "23": 0.14388295181465957,
                        "24": -0.3152262539021689,
                        "25": 0.030352125133275683,
                        "26": -0.3119162433657278,
                        "27": -0.12752059284278522,
                        "28": 0.17185240934285007,
                        "29": -0.5354448745042076,
                        "3": -0.014360135237640022,
                        "30": -0.12192047644879958,
                        "31": 0.06544173931287894,
                        "32": -0.3209234173842412,
                        "33": 0.26665893765498766,
                        "34": -0.1789072375623953,
                        "35": 0.3628991947425548,
                        "36": -0.0948347314748081,
                        "37": -0.24580253721172787,
                        "38": 0.17118918940012104,
                        "39": 0.19975094521981532,
                        "4": 0.14555837292916646,
                        "40": 0.1803672809187059,
                        "41": 0.4828967248473263,
                        "42": 0.2935556983531199,
                        "43": 0.05605568617211747,
                        "44": 0.197644204130737,
                        "45": -0.47754098513444276,
                        "46": 0.1252980439457385,
                        "47": 0.1419693268886359,
                        "48": -0.03872660254322222,
                        "49": 0.27462447934964074,
                        "5": -0.3974711526955081,
                        "50": -0.05862950284962874,
                        "51": -0.05614614962291634,
                        "52": 0.06910687935870108,
                        "53": -0.6867240927046101,
                        "54": 0.08769250750003806,
                        "55": 0.21089585762186336,
                        "56": 0.03697856375733023,
                        "57": 0.1334076018687352,
                        "58": -0.18857337808347252,
                        "59": -0.07723355084362654,
                        "6": 0.09122178551072503,
                        "60": 0.2784888366752989,
                        "61": -0.33709063259855737,
                        "62": -0.304426829471623,
                        "63": 0.23625298220357144,
                        "64": -0.16780154856566626,
                        "65": 0.10910793700482295,
                        "66": -0.042413083736600285,
                        "67": 0.2715276768166852,
                        "68": 0.21861851565184073,
                        "69": -0.20171945875093053,
                        "7": 0.40598715114713757,
                        "70": 0.05406785286671219,
                        "71": 0.268602412891158,
                        "72": -0.2730294903958692,
                        "73": 0.6031939698645177,
                        "74": -0.03765674640530919,
                        "75": -0.0023027017925244973,
                        "76": -0.029482349445343278,
                        "77": -0.3088490623683289,
                        "78": -0.07466418881473971,
                        "79": -0.1386602697558471,
                        "8": -0.4018476191850123,
                        "80": 0.10733091975251487,
                        "81": 0.40753317334787176,
                        "82": -0.14344425343343478,
                        "83": -0.08025906333291294,
                        "84": 0.2061657930120694,
                        "85": -0.6116204773515942,
                        "86": -0.006011166059702468,
                        "87": -0.025668051104129824,
                        "88": 0.10917299347089587,
                        "89": 0.0329791466488485,
                        "9": 0.03358141271197407,
                        "90": -0.009357800875912257,
                        "91": -0.061062984952638996,
                        "92": -0.17588795132834595,
                        "93": -0.4937819299111661,
                        "94": -0.2789170759559007,
                        "95": -0.21322072469879688,
                        "96": 0.13409833533812762,
                        "97": 0.09852034112793925,
                        "98": 0.14248283088300392,
                        "99": -0.016471987688046082
                    }
                },
                {
                    "depth": 8,
                    "sx": 5,
                    "sy": 5,
                    "w": {
                        "0": 0.04260261256489825,
                        "1": 0.12991092135072044,
                        "10": 0.1765149052764533,
                        "100": 0.07345190324076577,
                        "101": -0.16955019278559091,
                        "102": 0.3960631039302632,
                        "103": -0.15924112018100012,
                        "104": -0.17983751322861075,
                        "105": -0.11489991550142183,
                        "106": 0.31044581455314046,
                        "107": 0.06907346736653838,
                        "108": 0.255380203764014,
                        "109": -0.12190203668703908,
                        "11": -0.3596700517714291,
                        "110": -0.05882094816825531,
                        "111": 0.17846347412381738,
                        "112": -0.1921343725260644,
                        "113": 0.154162541311173,
                        "114": 0.4148945898813853,
                        "115": 0.3266804704910282,
                        "116": 0.6256006681654975,
                        "117": 0.28825229419812587,
                        "118": -0.0744626731851458,
                        "119": 0.3796772669274264,
                        "12": 0.09369837778659977,
                        "120": -0.04125771024563011,
                        "121": -0.11706241659871956,
                        "122": -0.22842811203159544,
                        "123": -0.14565053135643977,
                        "124": -0.2597026886838066,
                        "125": -0.017264245263192656,
                        "126": -0.03401873317106665,
