{"layers":[{"out_depth":1,"out_sx":24,"out_sy":24,"layer_type":"input"},{"sx":5,"sy":5,"stride":1,"in_depth":1,"out_depth":8,"out_sx":24,"out_sy":24,"layer_type":"conv","l1_decay_mul":0,"l2_decay_mul":1,"pad":2,"filters":[{"sx":5,"sy":5,"depth":1,"w":{"0":0.6074537588654843,"1":0.13565504315079582,"2":0.18317825996655562,"3":-0.37552196446674085,"4":-0.22766499286885308,"5":0.26165753862067925,"6":0.2817068001567708,"7":0.025076585539569003,"8":-0.8333885347309293,"9":-0.288619280115779,"10":0.2879609146777192,"11":-0.029083395457138034,"12":-0.329828831004988,"13":-0.4441317347447102,"14":-0.4811459307488292,"15":0.4137815336823117,"16":-0.3332387231589359,"17":-0.5501653626013189,"18":-0.38416612193723987,"19":-0.3348083345286838,"20":-0.16805302590296997,"21":-0.14391946723763835,"22":-0.16421051920905996,"23":-0.20250439068763212,"24":0.20938457698136947}},{"sx":5,"sy":5,"depth":1,"w":{"0":0.2677410301108553,"1":0.1894787932504063,"2":0.526681854492363,"3":-0.12293778888601889,"4":-0.2763797255741312,"5":-0.06296633175743749,"6":0.20362566597056755,"7":0.4134305826918829,"8":0.3547393173640521,"9":0.4269958280924532,"10":-0.6552709581231605,"11":-0.5265195444146223,"12":0.07712562985942377,"13":0.39886368991702426,"14":-0.09295078736295488,"15":-0.33161262176187384,"16":-0.64137907879688,"17":-0.5806110687345405,"18":-0.37558702093359675,"19":-0.419317383001394,"20":-0.17684680325689608,"21":-0.335204153322153,"22":-0.44816363608383786,"23":-0.33407188308830926,"24":0.26722076514978654}},{"sx":5,"sy":5,"depth":1,"w":{"0":-0.010321470211223887,"1":0.0990777973143817,"2":-0.0038424059288606712,"3":0.12322002818853547,"4":0.10134565883358597,"5":-0.05601893146257394,"6":-0.5990123001657246,"7":0.4377222033695042,"8":0.040516110455856694,"9":0.364604023948054,"10":-0.46095869019509106,"11":-0.42623343246770923,"12":0.13603267412295106,"13":0.41655169671258396,"14":0.427536956174185,"15":-0.43076352991825934,"16":-0.09602369599735365,"17":0.16794354091854985,"18":-0.0024007723613714564,"19":0.10260380030300549,"20":-0.5059402602333972,"21":0.03131386827414382,"22":0.08683182167586763,"23":0.48284356152039476,"24":0.27981867127514437}},{"sx":5,"sy":5,"depth":1,"w":{"0":-0.662495485830825,"1":-0.1132486699728919,"2":0.05180675850372954,"3":-0.2458324017157882,"4":0.1068746473023294,"5":-0.37677503454981714,"6":0.046476928668258706,"7":0.04161149575358986,"8":0.05925709631369831,"9":0.03157738432352229,"10":0.9183004861323935,"11":0.06202818279453606,"12":0.24263420986105771,"13":0.504339329636906,"14":-0.19872780490532155,"15":0.44940995168603504,"16":0.04749520493659711,"17":-0.19343865625640796,"18":-0.2309866286808505,"19":0.17139556924259722,"20":-0.20662168524386168,"21":-0.22273964734656979,"22":-0.5737080962976137,"23":0.23849666249718482,"24":-0.20856572292587094}},{"sx":5,"sy":5,"depth":1,"w":{"0":-0.11944167988020349,"1":-0.04946117903286355,"2":-0.8762650116063586,"3":-0.5413362489774124,"4":-0.5044786703977325,"5":0.21961370809835173,"6":-0.17805057185150436,"7":-0.025419234860865836,"8":-0.24344253473037558,"9":-0.40512031084358385,"10":0.032315369885846656,"11":-0.0458688533569762,"12":-0.25342724511692954,"13":0.10347406533356095,"14":0.19934974865817007,"15":0.6213301686683472,"16":0.5107560566787817,"17":0.4104966689029408,"18":0.27608385049227163,"19":0.3001200307682429,"20":0.15959657245290043,"21":0.45704609371668203,"22":0.1745036959494468,"23":0.059891167197283025,"24":0.3320273858023809}},{"sx":5,"sy":5,"depth":1,"w":{"0":-0.43938804498581335,"1":-0.0751603472326706,"2":0.8118924709938325,"3":0.6330593824604692,"4":0.7754199445584379,"5":-0.23913034249141005,"6":-0.09234527678174435,"7":-0.08338477652473543,"8":0.1929367397207219,"9":0.4453577683484868,"10":0.1289454009529739,"11":-0.3428135825269918,"12":-0.32009162569925126,"13":-0.18644473808383927,"14":-0.44059219615929884,"15":0.34126178034404264,"16":-0.28056767887972145,"17":-0.46003779973614434,"18":-1.2194732927064131,"19":-0.5048522939293876,"20":0.22081401394568595,"21":0.39367259401143784,"22":0.16072515362517728,"23":0.19404810828974076,"24":0.10611250052371445}},{"sx":5,"sy":5,"depth":1,"w":{"0":0.10617679619979903,"1":-0.009006362493419491,"2":0.10792174048562424,"3":-0.005766367957975423,"4":0.11473135248869858,"5":0.0563091207912275,"6":0.09581239596350372,"7":0.03950565174788087,"8":-0.19516531768074835,"9":0.24233559832565055,"10":0.31377231559075436,"11":-0.06574573898301175,"12":0.5156817431164554,"13":0.30562268282257427,"14":-0.07842554905513915,"15":-0.10528549137139048,"16":0.02260155663480864,"17":-0.22173907867495093,"18":0.1373070446733387,"19":-0.14889271947941923,"20":-0.3020794055136345,"21":-0.4128409188432651,"22":-0.17122376209890935,"23":0.006880559079482739,"24":0.08105593883342416}},{"sx":5,"sy":5,"depth":1,"w":{"0":-0.028642531804942792,"1":-0.22206156765443247,"2":-0.30378784957920824,"3":0.006404659569415445,"4":0.355406220199149,"5":-0.5383734806853083,"6":-0.5409768982036405,"7":-0.45756292177039193,"8":-0.15982546292869979,"9":0.4516500584548203,"10":-0.3600739635810981,"11":-0.2779316479298294,"12":-0.030535267477614713,"13":-0.7509928463366616,"14":0.4473772856249763,"15":-0.5745264630331532,"16":-0.5860672502159027,"17":0.008986248976769806,"18":-0.058123472630858104,"19":0.2459306662848974,"20":-0.10090499441266829,"21":0.07923137307277248,"22":0.2069216962945588,"23":-0.32976804029297674,"24":0.540758179293519}}],"biases":{"sx":1,"sy":1,"depth":8,"w":{"0":0.10999123772985031,"1":0.08518772315760373,"2":-0.1688529672271849,"3":-0.07957823262147201,"4":-0.006786414258754557,"5":-0.053738264573119345,"6":-0.1792794183809977,"7":0.05102468500414317}}},{"out_depth":8,"out_sx":24,"out_sy":24,"layer_type":"relu"},{"sx":2,"sy":2,"stride":2,"in_depth":8,"out_depth":8,"out_sx":12,"out_sy":12,"layer_type":"pool","pad":0},{"sx":5,"sy":5,"stride":1,"in_depth":8,"out_depth":16,"out_sx":12,"out_sy":12,"layer_type":"conv","l1_decay_mul":0,"l2_decay_mul":1,"pad":2,"filters":[{"sx":5,"sy":5,"depth":8,"w":{"0":0.08212321352149497,"1":0.2996426534368895,"2":-0.20939369667795776,"3":-0.1516275369290819,"4":0.006016751936251905,"5":0.028937575030242208,"6":0.1029784091605803,"7":0.012955303014584727,"8":0.02932660280560707,"9":0.23504697118839163,"10":-0.021687617782566677,"11":-0.03003208054960062,"12":0.061482359157761825,"13":-0.1333280203344595,"14":-0.17089179971676152,"15":0.23382432392766278,"16":-0.1567214550474585,"17":-0.029834523574060884,"18":0.13334348016682634,"19":-0.14847941087640384,"20":0.10495789208394399,"21":-0.14263388808622085,"22":-0.276404708465562,"23":0.008039601247035065,"24":-0.30324453958575515,"25":-0.34539950516078227,"26":-0.09369881592333873,"27":-0.15416120689695367,"28":0.06250392945269158,"29":-0.13899763788419553,"30":-0.3611735089148796,"31":0.24109814322695253,"32":-0.19951931681269228,"33":-0.3242777365539097,"34":0.04291808877793509,"35":-0.12520620000167562,"36":-0.05274296046322379,"37":-0.2681312256344567,"38":-0.1020289448951608,"39":0.0879741777938094,"40":0.08214126466614127,"41":0.18049184799735776,"42":0.15600680712780346,"43":-0.40962079100796217,"44":-0.13405564138593948,"45":-0.129663503239923,"46":-0.15184197521128961,"47":0.17362554205434988,"48":0.04210017549387764,"49":-0.23176131590633614,"50":0.14661867409595572,"51":-0.1327381123909691,"52":0.19838672560582518,"53":-0.061131648746493704,"54":-0.09186416783831147,"55":0.3223713365559847,"56":0.04689468421799274,"57":-0.34654029619595644,"58":0.19176337525867024,"59":0.20327422005959822,"60":0.22777821743358911,"61":0.006940278373209591,"62":-0.22198571743306353,"63":0.019287555667452716,"64":-0.04573661214024102,"65":-0.2115062585026262,"66":0.31806097059311234,"67":0.0280997195294449,"68":-0.1312999077918743,"69":-0.24595192708041091,"70":-0.1543399917611209,"71":0.16010585839754737,"72":-0.223886782226249,"73":-0.17231231330930424,"74":0.2915290328290505,"75":-0.16937062600559408,"76":-0.0933566602390008,"77":-0.17200037472972832,"78":-0.2589593410705619,"79":0.11427022238161771,"80":-0.19168465881277502,"81":-0.1817170207544345,"82":0.2776206397007056,"83":0.15817598737908356,"84":0.07706462843880475,"85":-0.1337872128702819,"86":-0.006977921355446817,"87":0.013500431334455849,"88":0.12195576885677319,"89":-0.44517701754694994,"90":0.14706821973245038,"91":0.17483487193998593,"92":0.08266077774461497,"93":0.15784291014776802,"94":0.006675946288876947,"95":0.0750202580362538,"96":0.2839005423045005,"97":-0.18640987060472822,"98":-0.24839062727376157,"99":0.23278449465705958,"100":-0.09173558537560175,"101":0.09686344606748815,"102":-0.19010367149373456,"103":-0.079626684664928,"104":0.07736572032145458,"105":-0.192400624418337,"106":0.3196038125701399,"107":-0.10920729569775972,"108":-0.279819723640506,"109":-0.3286003868269533,"110":-0.11219842330119208,"111":0.2242487267550408,"112":-0.15199833306737978,"113":-0.322000008721404,"114":0.37215848366393567,"115":-0.1484508391803331,"116":-0.05914501066724267,"117":-0.4003568824915162,"118":-0.1648937128718149,"119":0.29872765428710896,"120":0.11142019132266937,"121":-0.37319434615304004,"122":0.3064071431697318,"123":0.040075581417172705,"124":-0.016964964719228325,"125":-0.07778664737924149,"126":-0.06595338701025943,"127":0.0032591272198649393,"128":0.21334448428971003,"129":-0.21277095213809563,"130":0.06964311048061719,"131":0.026752788624237224,"132":0.12432267411138231,"133":0.013849250094242769,"134":-0.10465935383265786,"135":-0.36049741177176,"136":-0.06543859703478887,"137":-0.0001535613735772544,"138":-0.2602222365275438,"139":0.04665984999087225,"140":0.1141519587834025,"141":-0.11748864138385268,"142":-0.029764158035747893,"143":-0.03401694875794169,"144":-0.33878559430950733,"145":-0.22013862564441286,"146":0.27775242091808444,"147":0.1663768792512134,"148":0.0894228140108438,"149":-0.07574542766958242,"150":-0.10650007524629497,"151":0.07198565112895376,"152":0.057020142613187656,"153":-0.018993467202438625,"154":0.1704365886451178,"155":0.29251681994364187,"156":0.1486339507908868,"157":-0.12147035996184696,"158":0.12849492217694852,"159":0.14876224788390813,"160":0.19229735765977213,"161":-0.08600193300659949,"162":0.00185019904045352,"163":-0.010966645654949328,"164":-0.08568158899296975,"165":0.1392074133619321,"166":-0.03367023759112237,"167":-0.1085877967466046,"168":0.047338918672170875,"169":0.05808120675769046,"170":-0.3391290216489217,"171":0.01803234000157638,"172":0.054494752406738074,"173":-0.06228631337269486,"174":-0.16321638269880745,"175":-0.3205664305699549,"176":-0.3770765144231813,"177":-0.029662032153045404,"178":-0.2593431816323893,"179":0.08790259993678673,"180":0.005457353145399706,"181":-0.07377101597530335,"182":-0.02710065778077139,"183":-0.16173581957042274,"184":-0.21562514675036618,"185":-0.010438068631221445,"186":-0.11314737062958581,"187":0.3318043935196995,"188":-0.014659736864373185,"189":-0.0931527759644775,"190":0.13926926092232148,"191":-0.3415717426890335,"192":0.03501288928897482,"193":0.08047412842909518,"194":-0.05268682931257183,"195":0.1967172514784032,"196":-0.14824456604124148,"197":-0.20761634922442654,"198":0.14564818504877666,"199":-0.21131371424722928}},{"sx":5,"sy":5,"depth":8,"w":{"0":0.11716643963351712,"1":-0.2421681708084441,"2":-0.055639721940396125,"3":0.019008612831294104,"4":0.12189842620909998,"5":0.11059779290997045,"6":0.04715290542693393,"7":-0.09223765635558653,"8":0.005038214907116225,"9":-0.10375240947476504,"10":0.027925293947232036,"11":0.011096288015818334,"12":-0.15451888360913998,"13":0.05568292112367346,"14":0.04429632791540802,"15":-0.16616196367452052,"16":-0.04129570745692012,"17":-0.1097814485056342,"18":0.03481682014550142,"19":-0.05430015569094974,"20":-0.0824282378435073,"21":-0.19127016115190323,"22":0.0885235742709741,"23":-0.1012229170121916,"24":-0.10201733852077197,"25":-0.028864733265545804,"26":-0.028109120621481014,"27":0.006855387394663557,"28":0.1304392173508569,"29":-0.0872449329077249,"30":-0.13470954108320835,"31":0.044659530425467206,"32":-0.13270212432291406,"33":-0.2172945333829106,"34":0.10293885911760915,"35":0.11060378208621753,"36":0.07019802158389246,"37":-0.265103669581641,"38":-0.25213808804810983,"39":0.004317239256171047,"40":-0.013796145849998326,"41":-0.16547454405276515,"42":-0.00613295098780325,"43":0.015940525753720645,"44":0.23173902102370533,"45":0.04023560466315603,"46":0.27162973052666667,"47":-0.08418007070218983,"48":0.00023921059454905016,"49":-0.16104801801433521,"50":0.03224109935554998,"51":0.05838056588853148,"52":-0.000965681734462978,"53":0.2079096128533797,"54":-0.0674539800581859,"55":-0.067240451078026,"56":-0.014148785522575183,"57":0.022260804203686178,"58":-0.07121518359608953,"59":-0.1611931595184107,"60":0.03583686208432197,"61":-0.05746043509480904,"62":-0.024928124539787513,"63":0.10222123591000273,"64":0.20298454491036586,"65":-0.12287562546789688,"66":0.18283266814709562,"67":-0.05108233891032832,"68":0.06062238297200121,"69":-0.16039757946161573,"70":-0.18941345315638322,"71":0.20758407233903278,"72":0.20148347948889872,"73":-0.21193640327265403,"74":0.17530780875222068,"75":0.06187086732630674,"76":0.05055736985699497,"77":-0.40272810286709787,"78":-0.08871381593150628,"79":0.22740346717141696,"80":-0.27443758782289285,"81":0.31710242206164974,"82":0.010300904761319462,"83":0.08967079525586971,"84":-0.07541861922945875,"85":0.057733126283440246,"86":0.15542011712635906,"87":0.10383530484867524,"88":-0.1913653234568834,"89":0.18575967664698456,"90":0.018737425093946946,"91":0.23967473147151436,"92":0.10142601465184897,"93":-0.1262981893990972,"94":0.24217522472519185,"95":-0.15000530736392903,"96":-0.010199636102860994,"97":-0.0209039963585225,"98":-0.01873736765395209,"99":0.3147834878416147,"100":0.10160428139620163,"101":-0.013488287537660949,"102":0.041819319280136893,"103":-0.07434331111791334,"104":0.3461148231486688,"105":-0.15323280863132302,"106":0.138229077003487,"107":0.20191549532025924,"108":0.10871540602696668,"109":-0.020259981120591908,"110":0.23755043295188372,"111":0.05742993856436713,"112":0.15252809805242637,"113":-0.15475837265455852,"114":0.02230972554419015,"115":0.2590981088388555,"116":-0.05613105340605201,"117":0.05328424369112974,"118":0.10076083040741027,"119":-0.23944049570055628,"120":0.05183402004457423,"121":-0.026392417847632983,"122":-0.08118632351447379,"123":-0.1242541711855815,"124":-0.3415644917148995,"125":0.23455360073201098,"126":-0.19802585382809018,"127":0.11547387577275908,"128":0.06876245289848971,"129":0.1931011931309673,"130":0.0060429293632168505,"131":-0.014127843680379427,"132":-0.41904239213997707,"133":0.020180507540727727,"134":0.02407768700886927,"135":-0.21008919526492636,"136":0.005974701577115469,"137":-0.012029401998217176,"138":-0.19690922456383628,"139":0.026572506254877493,"140":-0.044632486608284984,"141":-0.012431538775616929,"142":0.023646716695272955,"143":-0.04956936402565541,"144":0.00025275783302465343,"145":0.07287073958989078,"146":-0.05815511116111551,"147":0.21199186423257882,"148":-0.14339935858724445,"149":0.20514296972769752,"150":-0.053099468263647316,"151":0.0657031643767785,"152":-0.2655068352872279,"153":-0.00708265142944867,"154":-0.33386518662747006,"155":0.15423789494658163,"156":-0.537401767948437,"157":0.03683593009196474,"158":-0.050234480258665525,"159":-0.42821719157137766,"160":-0.13585145958441466,"161":-0.2010323907254969,"162":-0.17475178950008557,"163":-0.07446922299435178,"164":0.23729422683028725,"165":0.09067174800709775,"166":-0.12733091102587907,"167":-0.09038112779399354,"168":-0.1987270178316627,"169":-0.12455526236019868,"170":-0.0827195485742746,"171":0.0832947393694321,"172":0.11075909577265532,"173":0.22964424415882717,"174":-0.279588098175602,"175":-0.02385988212554906,"176":-0.00877595923167643,"177":-0.014330915393745664,"178":-0.3305324171632157,"179":-0.1448647516603565,"180":-0.12965707309347466,"181":0.15388217828548154,"182":-0.36843149295099553,"183":-0.19836797077956755,"184":-0.025756116862693863,"185":0.1680228265197601,"186":-0.2039933395160049,"187":-0.32886409609572553,"188":-0.3735573101507774,"189":-0.003923895335403677,"190":-0.3771692328001808,"191":-0.07214222304092063,"192":0.11714685427438738,"193":-0.1089987029039538,"194":-0.10131045265664307,"195":-0.24511172264243614,"196":-0.09656064033212286,"197":-0.30893441197647226,"198":-0.3856859744420616,"199":-0.13452188240313584}},{"sx":5,"sy":5,"depth":8,"w":{"0":0.158534904737148,"1":0.3659654651097056,"2":0.11850696928801924,"3":-0.17077286350898152,"4":-0.2694257254354492,"5":0.21237934889300633,"6":0.04507626292465365,"7":0.22628496316137423,"8":0.012621912824502599,"9":0.14354014260249212,"10":0.013190445256791538,"11":-0.16389449093885808,"12":-0.3465979259654521,"13":0.20127475674001963,"14":0.015027763540198032,"15":0.1607798484802389,"16":0.4016405563198204,"17":0.0092408476307316,"18":-0.25808131482934965,"19":-0.14170208151766225,"20":-0.4036335374011843,"21":0.16003930790485038,"22":-0.0025773145196863806,"23":0.05770259673804763,"24":0.3406132677133977,"25":0.039598934777391126,"26":-0.27431487112719544,"27":-0.2087730859107473,"28":-0.38116553744064147,"29":-0.05306897254200369,"30":-0.12758074514121423,"31":-0.13127993360544088,"32":0.31630486419966275,"33":0.13283638153155197,"34":-0.23195693148259855,"35":-0.20404671291241933,"36":-0.23000154008498247,"37":-0.18913548724279106,"38":-0.13065425076784085,"39":-0.02706411055669393,"40":-0.19086609087274464,"41":0.30516627337632063,"42":-0.4276044239741305,"43":-0.41006086093451055,"44":-0.20104805127312889,"45":-0.0134608162191072,"46":-0.3106158911419076,"47":-0.05944225817515807,"48":-0.1314962999851295,"49":0.036072126228103664,"50":-0.32077542643233425,"51":-0.3113854078279123,"52":-0.1684673932836328,"53":0.14048212613685876,"54":-0.29097678207755484,"55":-0.3340423301473566,"56":-0.14535500465666473,"57":0.020416923837217892,"58":-0.3535995743357498,"59":-0.35856402210603816,"60":-0.1183011552791062,"61":-0.22407904886852356,"62":-0.2102456431086618,"63":-0.22983319053949988,"64":-0.05963166199464289,"65":0.003392594605076161,"66":-0.29225530409892264,"67":-0.4151599723979642,"68":-0.15905723278781947,"69":-0.06622592883780157,"70":-0.18276879881157412,"71":-0.12466508463373024,"72":-0.08121838686967128,"73":-0.14045564806114555,"74":-0.07778346815044168,"75":-0.23656559575050112,"76":-0.11911398629767411,"77":-0.2775983529957176,"78":-0.23316879090167783,"79":-0.11115218447112214,"80":-0.09665335068572779,"81":-0.0827294127275781,"82":0.08709879373950044,"83":0.11744932372234552,"84":0.040985171153446846,"85":-0.11108973209763201,"86":-0.33991005110260186,"87":0.007302966996592583,"88":-0.2755303230255499,"89":-0.06624845981979405,"90":-0.1605197819429089,"91":0.1625763140320154,"92":0.12313510374541838,"93":-0.2115561212445207,"94":0.015862252827381292,"95":-0.08165371661792187,"96":-0.3400387349457178,"97":0.08045199055773271,"98":-0.26866075779910475,"99":0.1889490564843899,"100":0.11016569549009639,"101":-0.08205835942076393,"102":-0.006331494517724377,"103":0.045442712616667,"104":-0.11905681411321124,"105":-0.01233537630420476,"106":-0.038446319183160806,"107":-0.00017020247706518173,"108":0.13005608442885724,"109":-0.08681159786623677,"110":-0.09702863443555454,"111":-0.17079829616199962,"112":0.11542649486820206,"113":-0.22596539010193922,"114":-0.09402007871835322,"115":0.08175752103662745,"116":0.028348123205562,"117":-0.11104157378564967,"118":-0.12725376578315745,"119":0.005370198813603858,"120":-0.19404717667526605,"121":-0.2316078519249936,"122":-0.05253283170234232,"123":0.15645353717362234,"124":0.25722129088644863,"125":0.09607957435376382,"126":0.0122349266259179,"127":0.09293691835147969,"128":-0.31202324864440484,"129":0.0828284955785869,"130":-0.16899592056968224,"131":0.2442664513696241,"132":0.04489827032807979,"133":0.08483826032302573,"134":0.004629979685945969,"135":-0.2584046428750413,"136":-0.29552776956580223,"137":0.11023398977723906,"138":-0.0019642679953233806,"139":0.053194807064387666,"140":-0.06432925717955995,"141":-0.05796373649802755,"142":-0.0022723998577306257,"143":-0.01777037568927177,"144":0.012868931735636647,"145":-0.0562917584794686,"146":0.07251145918229072,"147":-0.002935640434670261,"148":0.026171685587265025,"149":-0.11857423312966943,"150":0.024530856214623392,"151":-0.038955229295503546,"152":-0.0414243237450624,"153":0.01294187459539142,"154":0.19013981060386229,"155":0.08847265325322845,"156":0.0759822383461068,"157":-0.3442928676213634,"158":0.062409344628729616,"159":0.0033428986511802555,"160":0.1851647671078811,"161":-0.1945235983976055,"162":-0.0418213492395066,"163":-0.018572890296590885,"164":0.13709365565704448,"165":0.264963156137286,"166":0.07643959965385186,"167":-0.07112787438536636,"168":-0.13302869258851108,"169":-0.040912784964332594,"170":0.14943564615697053,"171":0.17497181371601717,"172":0.0530808541295731,"173":0.11966566005042087,"174":0.03956919803501018,"175":0.051763928593519505,"176":-0.28835233245255665,"177":-0.021201574467737128,"178":0.0833415266556228,"179":0.05792538272296269,"180":0.06669869592085688,"181":0.04557749875040535,"182":0.04916069388145993,"183":0.09483830535991428,"184":-0.04011238205038411,"185":-0.18262210546954558,"186":-0.03278433640775751,"187":0.17171905561792392,"188":0.052399093049760884,"189":0.013767537550532935,"190":-0.020118462338826873,"191":-0.13461210990388395,"192":-0.26952491913058013,"193":0.003202904115314543,"194":0.24956516751507118,"195":0.1495743795302074,"196":0.09325595212676473,"197":-0.3525434252133503,"198":0.034577294048362295,"199":0.20769727084248324}},{"sx":5,"sy":5,"depth":8,"w":{"0":0.08789751288952329,"1":0.13547163908943066,"2":0.10668480974130023,"3":-0.23478348727744502,"4":-0.1027887522270396,"5":0.07091868407446256,"6":-0.003589107343451036,"7":0.2721778116627736,"8":0.04637423784273399,"9":0.03943813440006714,"10":0.09161365634753992,"11":-0.1818030544059401,"12":0.04766597830287483,"13":-0.0008603572547579545,"14":0.012805652085914962,"15":0.20295066165242753,"16":0.20542539973436819,"17":0.015408593940229044,"18":0.2012670151010107,"19":-0.0011608393703805826,"20":0.019065674949889477,"21":0.15793056247846596,"22":0.026132840563019618,"23":0.17650967205448612,"24":0.02342672252097329,"25":0.05803461253252296,"26":0.18160642405596075,"27":0.06550033319925311,"28":-0.08803345798234302,"29":0.12172379796094214,"30":-0.029574884165539723,"31":0.15995764252385813,"32":0.14189549374218266,"33":-0.18270844791532756,"34":0.0325603943700332,"35":-0.09306485111075961,"36":-0.05206680886459711,"37":0.054303707419913486,"38":-0.022590582537488312,"39":0.1190322502417571,"40":-0.14299685406722015,"41":-0.10905322827524179,"42":0.001076869060368316,"43":-0.12907699970134642,"44":-0.19521558893581667,"45":0.13596346953202337,"46":-0.3461005818045761,"47":0.1457733362605546,"48":-0.12368026514146555,"49":-0.027978767466448843,"50":0.03315810888260346,"51":0.008195150184294285,"52":-0.044233325414003696,"53":0.2524607876405838,"54":-0.16924716959178046,"55":0.020118300754393942,"56":0.05337703864381712,"57":0.05423594533848124,"58":-0.20916672080711549,"59":0.04227500612910205,"60":-0.11501064491361167,"61":0.035043813365589434,"62":0.033996932415684925,"63":-0.01505219592434631,"64":0.04627195287568315,"65":0.038383312376351175,"66":0.01200447171771705,"67":-0.2685309731411262,"68":-0.2044255884139581,"69":-0.08540630912971399,"70":0.12634869779770738,"71":0.040780561732826966,"72":-0.0010633958559502995,"73":-0.19078096771086112,"74":0.000699097220689586,"75":-0.0224326369110531,"76":-0.25014135775344154,"77":-0.0014665032497365648,"78":-0.1038479175303789,"79":0.04411100936339994,"80":-0.3206699641974025,"81":-0.4174449694402938,"82":-0.0156167002803342,"83":-0.06781927748441734,"84":0.09797350990789441,"85":-0.11770007684764262,"86":-0.2655481759496163,"87":-0.16203914290685126,"88":-0.04450434685903292,"89":-0.372392154920169,"90":-0.17281666837066448,"91":0.11463287458950554,"92":0.08963422662455436,"93":0.058148909083913194,"94":-0.321881310063613,"95":-0.0785239532009603,"96":-0.09464762837017399,"97":-0.1224507033689773,"98":-0.3074246011789366,"99":-0.09547292831593698,"100":0.07344727384610059,"101":0.07450567464481182,"102":-0.31151712238880463,"103":-0.15020602345569722,"104":-0.16608526563438955,"105":-0.03172901382701858,"106":-0.15225667993440617,"107":-0.21015158013709836,"108":-0.1257491888673012,"109":0.08381527434309397,"110":-0.13570639639629412,"111":-0.3698364876390539,"112":-0.18263219328128166,"113":-0.1940959898027475,"114":-0.12210319167108326,"115":-0.33924122114736804,"116":-0.4441729993250501,"117":-0.06634335602732792,"118":-0.21647807274341008,"119":-0.11341214533207913,"120":-0.06415429702741045,"121":-0.2557122746151687,"122":0.008479915861463372,"123":0.09996074949490026,"124":-0.12570890229993062,"125":-0.1647020819494284,"126":-0.16010042587214493,"127":-0.17422872347300478,"128":0.02847235029251319,"129":-0.09567560811904562,"130":-0.21732379679125188,"131":0.26693795511264173,"132":0.2524851302432487,"133":-0.25531843431306467,"134":0.16525898681488832,"135":-0.04472718524773217,"136":-0.15278010146735635,"137":-0.04950688598158663,"138":-0.2311551540277213,"139":0.2092326898684818,"140":0.3237508105653099,"141":-0.14163324363491922,"142":0.09605079416855739,"143":-0.15878503064890284,"144":-0.1353223638989051,"145":0.044535371940821404,"146":-0.17392234658871666,"147":0.12220589952297882,"148":0.26442332548373304,"149":0.018423298504036324,"150":-0.004843920019521086,"151":-0.09511673575230474,"152":-0.0412537495530384,"153":-0.31089551366511864,"154":0.04198032638772792,"155":-0.10793077945703602,"156":0.10350272312532184,"157":-0.04964758933245009,"158":-0.2521163900496077,"159":0.02103625307502192,"160":0.008685709991257529,"161":-0.2239632139504884,"162":-0.1966335787913849,"163":0.14625119979001977,"164":0.14244434122903232,"165":0.025557805820285127,"166":0.1632059196427201,"167":-0.24840189480198296,"168":-0.2083828568171764,"169":-0.20581464222431753,"170":-0.13765414792024022,"171":0.06020306204682142,"172":0.08940516871664565,"173":0.08252568542295707,"174":0.23865662892875128,"175":-0.271092207250972,"176":-0.25782800789923144,"177":0.0034072168173709437,"178":-0.25764699401708807,"179":0.20691660260018396,"180":-0.06493212510633489,"181":0.2176040679627779,"182":0.246142054227561,"183":-0.23819503060959107,"184":-0.1356484652890009,"185":0.1968947906724069,"186":-0.10433296010163158,"187":0.09720446974261834,"188":0.0811200613794598,"189":-0.09743198606146718,"190":0.18420551143401614,"191":-0.04363466454584501,"192":-0.08599998137740314,"193":0.10133070340141678,"194":-0.04647553295750199,"195":0.184853006836266,"196":0.3116738148727694,"197":-0.28479996557057646,"198":0.21739459405767234,"199":-0.25482536142434387}},{"sx":5,"sy":5,"depth":8,"w":{"0":-0.03208389531764809,"1":-0.02883147421462188,"2":0.06382816204470648,"3":-0.13183519560235082,"4":0.03657477641886572,"5":-0.17892783286470315,"6":-0.12841746873493334,"7":-0.036306072369895054,"8":0.13441684661025866,"9":-0.1487162786604274,"10":0.03939989112184852,"11":-0.24719411236887132,"12":0.1828065989905465,"13":-0.44695923321636966,"14":-0.18498059690117896,"15":-0.04137578788057192,"16":0.06160864513181856,"17":-0.12887130036800654,"18":-0.12058706781285086,"19":-0.010657125681776514,"20":0.08075042306339064,"21":-0.0625657999107258,"22":-0.08692845009172119,"23":-0.08978256031147908,"24":-0.15829093267548297,"25":-0.08566643872846173,"26":-0.07219087917824714,"27":0.18753466475501163,"28":0.1664697531527564,"29":0.09613094730585194,"30":0.007821056643800596,"31":0.0029614810983339965,"32":-0.06433336913131393,"33":0.08448266518225699,"34":-0.08814356780004869,"35":0.08741577369304337,"36":0.06464720811673767,"37":-0.05163049477849082,"38":-0.08431905402368835,"39":0.07308140503913499,"40":-0.07578287487927833,"41":-0.14018846132939766,"42":0.10822832068231639,"43":-0.10190628423884904,"44":-0.0829897410860962,"45":-0.43701628921418595,"46":-0.00395774242956309,"47":-0.0475370393913684,"48":0.10388272739467524,"49":-0.22580986193672334,"50":0.1716245129999376,"51":-0.04426463882985112,"52":0.020455204258074264,"53":-0.10964071907919731,"54":-0.07296090627469094,"55":0.052834729809570054,"56":0.18581125300505866,"57":-0.3179887406835394,"58":-0.20017266865457434,"59":0.14700782091871983,"60":0.01948017748810282,"61":0.13213382855312886,"62":-0.2310306261320713,"63":-0.14903245726669367,"64":0.09463493794365409,"65":-0.043985347093066784,"66":-0.17905797335802742,"67":0.28500708250319384,"68":-0.09629556246327445,"69":0.03773796662473362,"70":0.06115250253585762,"71":-0.1171356197901713,"72":0.0693096797709121,"73":-0.06679169272364638,"74":-0.02844822726743039,"75":0.2831135131326695,"76":0.0006907971646864144,"77":-0.019111021711792135,"78":0.053764558268239025,"79":-0.15464446777099006,"80":-0.15720561271339195,"81":-0.0745445822021169,"82":0.2654840917186798,"83":-0.09416482696600113,"84":-0.2606911112894162,"85":-0.39064263609197675,"86":0.0618816293529337,"87":-0.08061960384643445,"88":-0.12975423554835905,"89":-0.09828746624024023,"90":0.2545157135180914,"91":-0.0691979872924978,"92":-0.18188022911370405,"93":-0.564965481400293,"94":-0.008250907500367232,"95":0.2147286062635794,"96":0.11121545032643462,"97":-0.5888859758147339,"98":-0.05800603115923756,"99":-0.22057117162227075,"100":0.12596595920260692,"101":0.19751108605612222,"102":-0.13250326695562353,"103":-0.2590763823127559,"104":-0.1226073280223346,"105":-0.1282331365634903,"106":-0.17954589405221777,"107":-0.172898299119047,"108":-0.03971657781067612,"109":0.2629211413736355,"110":-0.17191615209963362,"111":-0.31890604056617644,"112":-0.10984867716881684,"113":0.09030537685470268,"114":0.12739846279571657,"115":0.03746679187451982,"116":-0.051443515520449394,"117":-0.07840816405966355,"118":-0.029909595447187794,"119":-0.21205152327639384,"120":-0.34158523518994094,"121":0.003866511191261319,"122":-0.02719168485976231,"123":-0.000014953378448204365,"124":-0.25168179519387157,"125":0.06770388381696935,"126":0.003580462189343471,"127":0.03969228913818168,"128":-0.4241702980716732,"129":0.07934997028228469,"130":0.21242065737445134,"131":0.23296560179842424,"132":-0.38397287685964043,"133":-0.07728717791454973,"134":0.24949503983241572,"135":0.2914747634386982,"136":-0.2749271779508545,"137":0.2212305932498798,"138":0.0221416775972832,"139":-0.24988299825889093,"140":0.12550380494100333,"141":-0.23217311093643458,"142":0.09463622379223081,"143":-0.23438854263222647,"144":-0.14952357977251812,"145":-0.045944126323250685,"146":-0.6258252982093008,"147":0.09192134515469146,"148":0.18163286559907932,"149":0.1362475055764409,"150":-0.005839504531869072,"151":-0.4961318339980022,"152":-0.15522770471610142,"153":0.09373274388349703,"154":-0.10337312205321762,"155":0.1480500829391282,"156":0.08702330325911922,"157":0.09393926190571775,"158":-0.09188529031892485,"159":-0.2802304888207909,"160":0.03992155986834244,"161":-0.0851692738269365,"162":-0.1337971321437789,"163":-0.08349418259637982,"164":-0.1564392910091097,"165":0.006212684237670914,"166":-0.06617904650681856,"167":0.06125097562376455,"168":-0.10294641621943781,"169":0.2595066765732015,"170":0.10521667946427203,"171":-0.08154239612821412,"172":-0.4578070271414276,"173":0.07356575287516581,"174":-0.04665639012711917,"175":0.40414829470633046,"176":-0.14712411372934506,"177":0.10393897631115226,"178":0.1995097337710877,"179":-0.17228879135686365,"180":0.022998160373010605,"181":0.04963618978291612,"182":-0.01329366464942065,"183":0.13193008305080003,"184":-0.10128370162756264,"185":0.06504481657401984,"186":-0.3549015932319698,"187":-0.14235611387865263,"188":0.07312379452550698,"189":-0.030457649833606066,"190":-0.033130622960197136,"191":-0.3373073810544707,"192":-0.07584622509254041,"193":0.09260385350416504,"194":-0.29304473681665527,"195":0.13045388965397126,"196":-0.0012377905519556638,"197":0.2609517497649959,"198":0.07255916020456851,"199":-0.5432926069000817}},{"sx":5,"sy":5,"depth":8,"w":{"0":0.16124929263271964,"1":0.02260429134165772,"2":-0.1627058448174811,"3":-0.01708211564378046,"4":-0.060147555946076244,"5":-0.10984690729748153,"6":-0.2536087365202088,"7":-0.06627451579801942,"8":-0.2731875715056082,"9":0.13478287140707185,"10":0.01667551556212844,"11":-0.36603700230774566,"12":-0.15476666712669168,"13":-0.2224101131635393,"14":-0.33941956533819595,"15":0.014224583891065939,"16":-0.27368962860141777,"17":-0.08954861198147292,"18":0.2458236475285177,"19":-0.03085629330444634,"20":0.10399542067141787,"21":-0.5209976706655264,"22":0.05467948447636008,"23":0.28600787324932736,"24":-0.03345138225370888,"25":-0.5262833470701317,"26":0.24490221904899795,"27":0.04174526312941616,"28":0.09966943744078546,"29":-0.1717509857432287,"30":0.009638919924608472,"31":0.10119544960667659,"32":-0.07477617121890165,"33":-0.2467823906574697,"34":-0.07166442259611257,"35":0.41812299328295127,"36":0.02421047061642503,"37":0.18158205750683148,"38":0.29800145041989323,"39":-0.3151121507610712,"40":-0.1692492208890522,"41":0.18942219799921306,"42":-0.21986200983172247,"43":-0.049193229518940736,"44":0.28546404107491236,"45":-0.1574173356944168,"46":-0.11876236585488233,"47":-0.04926715632761407,"48":-0.24840195860531067,"49":-0.12003127613028294,"50":0.0016988285635995389,"51":0.09067326632551673,"52":0.058271958485744964,"53":-0.025011601728686658,"54":-0.0015519857265970413,"55":0.007786216029417399,"56":-0.16519500011135532,"57":-0.3382080228960723,"58":0.16506618129221454,"59":0.07865548991644543,"60":-0.2690644056951883,"61":-0.6243642186067002,"62":0.1532130709394432,"63":0.03188390920923113,"64":-0.11547989219542638,"65":-0.552703667646439,"66":0.12098979384830816,"67":-0.02870674755842161,"68":-0.319828615728399,"69":-0.03500164197883341,"70":-0.08399444078521398,"71":-0.18402553596793816,"72":0.02976126968981584,"73":0.01061153422483028,"74":-0.15954018827260388,"75":-0.05490553696572301,"76":-0.12943463982928227,"77":0.18238800396781435,"78":0.012951178990476033,"79":-0.3593839544347895,"80":-0.17806730603240187,"81":0.22954276287861192,"82":-0.11866829496621623,"83":0.3657501168360328,"84":0.27308311715361344,"85":0.1514590052592026,"86":0.17017873270613534,"87":-0.10278410144962065,"88":0.15383405151763777,"89":-0.08347035580248678,"90":0.012575378014955202,"91":0.15959208755996843,"92":-0.0057735743045459935,"93":-0.16725994703355002,"94":0.06686260359271004,"95":-0.01283729246206192,"96":-0.11013603920680126,"97":-0.047005061589109574,"98":0.2525963831509245,"99":0.062240172165557696,"100":-0.5734108989817824,"101":-0.450224363743452,"102":0.09143830837464967,"103":0.14749334945400522,"104":-0.4088003588969987,"105":-0.1630366885573416,"106":0.0559692062420433,"107":-0.15907845066355009,"108":0.024785391519776778,"109":-0.26808322579060384,"110":0.07253670168521884,"111":-0.17370767535764248,"112":-0.057921479568071095,"113":-0.10643918135617252,"114":-0.24461217338866545,"115":0.07675912234040135,"116":0.26460715284276076,"117":0.07450884186375839,"118":0.06237558497411031,"119":-0.07961762458440828,"120":0.23043750198915183,"121":0.453491605712259,"122":0.018550719924450957,"123":-0.10977010181602817,"124":-0.30674594720862797,"125":0.07144970747754983,"126":0.05145660741636378,"127":-0.11808568739130738,"128":0.08675433773165438,"129":-0.02127962893510428,"130":0.1664038574513944,"131":-0.01705758024552708,"132":-0.22927118686348757,"133":-0.2997166070951652,"134":-0.14179262806568838,"135":-0.02776153497674628,"136":-0.32621838744957693,"137":0.023822945214513575,"138":0.1913252325057555,"139":-0.10918597944018758,"140":-0.255957114606049,"141":-0.02459183521341122,"142":-0.07834726509159212,"143":0.35314268864899223,"144":-0.2353786541643581,"145":0.1472938526391741,"146":0.06351408603647962,"147":0.057227500155225805,"148":0.04203543304061981,"149":-0.19478926466107682,"150":0.08645414996371167,"151":0.11373590257337128,"152":0.12153673728048461,"153":0.12877897689012224,"154":-0.3648050616730301,"155":0.06673036600833872,"156":0.3293256321236771,"157":0.17329322253560014,"158":0.021269372981654197,"159":-0.474778005791276,"160":-0.21982115634947294,"161":-0.13326901978442726,"162":0.034758158687444696,"163":-0.1814391636158952,"164":0.0393065138354754,"165":-0.2092581865044744,"166":-0.12117715757701544,"167":0.08215832707550262,"168":-0.03911204125163011,"169":-0.20083005185044764,"170":0.008367196390695199,"171":-0.0434794445953586,"172":-0.12526294745081873,"173":-0.10110399755813035,"174":-0.18536022463130114,"175":-0.014283585902304953,"176":0.14137919343607183,"177":-0.16847429823327636,"178":0.08742314951384303,"179":0.004501167893565839,"180":-0.21480748908176342,"181":-0.1476906297381071,"182":-0.21522442426563987,"183":0.21964035843333057,"184":-0.06215501221175303,"185":-0.10390404989150591,"186":0.27660140686427304,"187":-0.20199475555897942,"188":-0.013396092402622331,"189":-0.21078306193655302,"190":-0.054407607450892445,"191":0.19885076452717698,"192":0.004438719981127735,"193":-0.11202931134951483,"194":-0.2531813005838494,"195":-0.2927266460801588,"196":0.09413058648904957,"197":-0.1715444857373464,"198":-0.1141585834050458,"199":-0.37148482489761686}},{"sx":5,"sy":5,"depth":8,"w":{"0":-0.23714900861314425,"1":0.280802753985269,"2":-0.05027642917981063,"3":0.2683197825770276,"4":0.24076249100693306,"5":0.00021090175412215328,"6":0.09347940737538982,"7":-0.13914307831761571,"8":-0.10836429356372317,"9":0.03155668573070919,"10":0.13535093500710824,"11":0.18377119825068697,"12":-0.041950721302607644,"13":-0.00023044040072778927,"14":0.2033667874362785,"15":-0.14361024281207013,"16":-0.06136288035168499,"17":-0.27446996374775456,"18":0.13976167616761798,"19":0.005531031785982701,"20":-0.007384279475191123,"21":0.0008304036380608543,"22":-0.026639336887089762,"23":0.03514269745470795,"24":0.01307694968493725,"25":-0.1619092544677444,"26":-0.12536259152672122,"27":-0.037921789173392895,"28":0.10694523623430095,"29":0.012992931276705023,"30":-0.12619654787963638,"31":-0.15655558142920506,"32":-0.15559957519638473,"33":-0.07063140837572328,"34":0.07097800218612832,"35":-0.014504795373270297,"36":-0.16909332064669835,"37":0.08230515840176054,"38":0.00812044775788111,"39":-0.07623990083931599,"40":-0.27321624513900916,"41":0.11755461535252007,"42":0.11447610579250764,"43":0.10759145340165197,"44":-0.16636316031140674,"45":0.11395031444857397,"46":0.0727046331248812,"47":-0.07847073383245244,"48":-0.24164202744788396,"49":-0.1786545494031547,"50":0.018081830096963684,"51":0.11046101816979696,"52":-0.3156995894499039,"53":-0.3792791431746424,"54":0.010275868992424471,"55":0.02438042543755634,"56":0.08196506419069088,"57":-0.32039941862283144,"58":-0.06426731280845145,"59":-0.09964826304844042,"60":-0.001348473346458397,"61":-0.0313758489155004,"62":-0.0807503443019507,"63":-0.06107446492376156,"64":0.20432912987206944,"65":-0.11516951013484096,"66":-0.16773410023275306,"67":0.18059934334518876,"68":0.027330195687678062,"69":0.15810886692351409,"70":0.016040263671659605,"71":-0.14104564158814648,"72":-0.10653454468297523,"73":-0.028514453587536247,"74":0.03855531743027082,"75":-0.07121208644791927,"76":-0.2339068294229964,"77":-0.03672720688527451,"78":0.003726641536896717,"79":0.06572300008690575,"80":-0.3926127374424644,"81":-0.10644108939520354,"82":0.16638959282870228,"83":-0.13045108942328876,"84":-0.03226494516427594,"85":-0.35569808021890287,"86":-0.14727152528143686,"87":0.08686266936189396,"88":0.15832010723919235,"89":-0.4287340133240823,"90":0.20850030527490693,"91":0.21342106888563214,"92":-0.03970815627064922,"93":0.026145560822101146,"94":-0.07101737486315303,"95":0.12199066936784735,"96":0.40981326492654335,"97":-0.23488197772982045,"98":-0.15118338859172148,"99":0.10091737950347121,"100":-0.09502984627932502,"101":0.10411578299863401,"102":0.057876603383526515,"103":-0.11283090350567725,"104":0.19838881555467047,"105":0.10304720871220648,"106":-0.31209538822021327,"107":-0.07239588381181321,"108":0.02912868440334907,"109":0.005212890676474957,"110":-0.1101987582978674,"111":-0.04894272020612344,"112":0.10344530598484801,"113":-0.09572339261098989,"114":-0.03671823876697957,"115":-0.00942598978043144,"116":-0.026247857218455357,"117":-0.05487111845004307,"118":-0.06511490080417193,"119":0.011601115616533066,"120":0.05155885977235107,"121":-0.444928085545748,"122":-0.060620676454429256,"123":0.2565760064091089,"124":0.09594577322436298,"125":0.14463029516518328,"126":0.1398714592045212,"127":-0.23270927833571242,"128":0.327391442399993,"129":-0.03171434218695868,"130":-0.056112504198754666,"131":0.22370454955920166,"132":-0.13887013350967667,"133":0.21408920855079008,"134":0.18362813483947404,"135":-0.12339996765762593,"136":0.3399369520236684,"137":0.07517635549366057,"138":-0.39668908528234004,"139":-0.020276193486478303,"140":-0.190922570794238,"141":0.11253592589391258,"142":-0.020611092012737323,"143":-0.21297562570634987,"144":0.14627643773485882,"145":0.03833917995552614,"146":-0.14880583176498882,"147":-0.13306932712419733,"148":-0.08195500417324826,"149":-0.19989516078782155,"150":0.007088788475013558,"151":-0.08219057810546915,"152":-0.05921213708555342,"153":-0.1619606346940813,"154":-0.17732886030031347,"155":-0.008311356079937979,"156":-0.08076068072668721,"157":-0.09669684949853136,"158":-0.19437952266411795,"159":-0.12303676188283087,"160":0.2603669776291312,"161":-0.05091737552891172,"162":-0.31290158530705353,"163":0.1337070169882248,"164":-0.31724827059313904,"165":0.08875018254139987,"166":0.10765035733146158,"167":-0.1923123923904727,"168":0.13702430144115058,"169":0.20324582218013634,"170":-0.08949711474196166,"171":-0.1733243894557804,"172":0.09538349518311776,"173":0.051180325326668406,"174":-0.07534900937258387,"175":-0.00870083903094985,"176":-0.19568620259210648,"177":-0.022548438947620188,"178":-0.2287226242789316,"179":0.038025340200034584,"180":0.09742330931900417,"181":0.002827954758176304,"182":-0.16006913934545663,"183":-0.1654838664917042,"184":-0.19522373456736167,"185":0.06141122257988024,"186":-0.11661841754989646,"187":-0.021566420943233345,"188":0.1728948496236366,"189":-0.09288697736798532,"190":-0.07791890042232952,"191":-0.1005788023846432,"192":-0.004439359527833308,"193":-0.16280678227451545,"194":-0.24305456055644503,"195":-0.027216334898314903,"196":0.11671672216866924,"197":-0.1321023929866427,"198":0.03656778659477381,"199":-0.06478985740557948}},{"sx":5,"sy":5,"depth":8,"w":{"0":0.018934613192706548,"1":0.07946784106615624,"2":0.15928367592662956,"3":0.10324346660952846,"4":-0.0652902461974025,"5":-0.15665810912508574,"6":0.2808463706732739,"7":0.08752301875735706,"8":-0.08857233640785352,"9":-0.11141825419469652,"10":0.021053099364897274,"11":0.1511018520877129,"12":-0.11952967315669431,"13":-0.13843689794830982,"14":0.22489127887244637,"15":-0.13307439343483116,"16":-0.09444875761619485,"17":-0.1433354093266724,"18":-0.08570929892866623,"19":0.07851487876728774,"20":-0.017998447913303416,"21":0.11301997349185187,"22":0.023489175526394793,"23":-0.34547805846032625,"24":0.04227945232821256,"25":-0.2795889740845091,"26":-0.12077506404462589,"27":0.037011418842423593,"28":0.023996411301247682,"29":0.038101143536420225,"30":-0.07549651135090182,"31":-0.1811938551191769,"32":0.05187734513457219,"33":-0.25985980086586735,"34":-0.20983976049698982,"35":-0.09981301476966672,"36":0.09506725069400375,"37":-0.09971708165685865,"38":-0.3028466865346229,"39":-0.18274382409516163,"40":-0.031180324019429537,"41":0.11162217839608787,"42":-0.025306941313182466,"43":-0.23189070766295258,"44":-0.1870055775721417,"45":0.0784201873275009,"46":0.15987038676027396,"47":0.1756352162879846,"48":-0.06851109990175133,"49":0.15413677787263147,"50":0.03303099830945028,"51":-0.04896259671692445,"52":-0.2366986294241673,"53":-0.015759619556574532,"54":0.10749809394786426,"55":0.12683474884892185,"56":-0.24003983089162653,"57":0.12075546960681405,"58":0.012535797989407082,"59":-0.08397448068669601,"60":0.10333986513808827,"61":0.0880225423168914,"62":0.11042263514459212,"63":0.06690742420107508,"64":-0.31652308027505466,"65":0.11925327735881357,"66":0.27034553506738024,"67":0.28379109214417336,"68":0.17683618934591086,"69":-0.0187391632597518,"70":0.048085441612205806,"71":0.09307390664432742,"72":-0.06775346868773127,"73":-0.12057018264464195,"74":-0.0795439039591352,"75":0.12772343922854876,"76":0.28584587048859816,"77":-0.03033341306735087,"78":0.007188117350409369,"79":-0.3306573394180367,"80":0.1354545091717889,"81":0.0993066146631914,"82":0.010280232724214846,"83":-0.03737084813198906,"84":-0.21825995989512365,"85":0.19556965938394885,"86":0.03249470643937872,"87":0.06753232257423405,"88":-0.1774422998985685,"89":0.1421746451235599,"90":0.028725638756663924,"91":-0.1268374367354117,"92":-0.19886856895319768,"93":-0.019275633683419408,"94":0.11989592348312215,"95":0.20455534021347227,"96":-0.4062221460066014,"97":0.20767942545246112,"98":-0.022268054335918695,"99":-0.021271515275040995,"100":0.0478925585485057,"101":0.1916078501850693,"102":0.17533461117701463,"103":0.06783401854261742,"104":-0.1568552480127527,"105":-0.0057847943644147495,"106":0.14730449562067766,"107":0.273575391821054,"108":0.20054547140153753,"109":0.05663799231869072,"110":0.2018096380832158,"111":0.036200483098571504,"112":-0.04563415910934135,"113":-0.007584660817684406,"114":-0.08103518176499663,"115":-0.01037531661303709,"116":0.0852775056721306,"117":-0.14155866960654948,"118":0.14796146174061697,"119":-0.22939130152285106,"120":-0.16727146884358943,"121":0.13477324479320218,"122":-0.20270263355482912,"123":-0.008472489999508968,"124":-0.18441502315048885,"125":0.1516877400110076,"126":-0.185407624375072,"127":-0.038837387751166574,"128":-0.47202212719347186,"129":0.24865023096995081,"130":-0.11813474324324459,"131":-0.15625149030242488,"132":-0.13573632975246874,"133":0.26864006699398174,"134":-0.0356062591778377,"135":-0.10409994653489488,"136":-0.4797124982066701,"137":0.13297397595680233,"138":-0.07245271226535331,"139":-0.14398461694848982,"140":-0.35006599944772093,"141":0.09742137417841151,"142":0.02176066542897704,"143":-0.01001040460677623,"144":-0.21348064868282135,"145":0.0076191364792902215,"146":0.04271383848083365,"147":-0.28986294008077473,"148":-0.17080498163495003,"149":-0.24638268377946526,"150":-0.21062076845198827,"151":0.08574126698660275,"152":-0.04213198181281494,"153":-0.28457329405279036,"154":-0.1373731812626332,"155":-0.16571525106592577,"156":-0.19508326149631866,"157":-0.1996940215701951,"158":-0.1726059962028895,"159":-0.03231145605110542,"160":-0.11816325427647117,"161":-0.01468833194900478,"162":-0.030118600995532593,"163":-0.0867802350856556,"164":0.05370888520393887,"165":0.10922754743461659,"166":-0.11195984222098604,"167":0.11362503805506204,"168":-0.2798972311731715,"169":-0.16684207453067895,"170":0.13511336356067172,"171":0.04379184933027373,"172":0.1711707881635345,"173":-0.038768971538984245,"174":-0.17213881338059342,"175":0.14558939787134723,"176":-0.3620261138389695,"177":-0.31107643639389315,"178":0.05424852038037286,"179":0.03305456748660011,"180":0.28969009108368426,"181":-0.17775924690754685,"182":-0.16747824312916826,"183":0.05788280246522011,"184":-0.04856474012607377,"185":-0.4386261365981524,"186":0.18514231494696973,"187":0.06026965912326487,"188":0.10178882372418506,"189":-0.018346237435259736,"190":-0.09687921433805927,"191":0.10017435629953746,"192":0.17980712878010532,"193":-0.30978145569247956,"194":-0.16228155788510304,"195":0.06492233394001234,"196":0.014895324857567737,"197":-0.10030457712984969,"198":-0.10124771907363687,"199":0.08674132907627122}},{"sx":5,"sy":5,"depth":8,"w":{"0":0.06147841067898218,"1":-0.19643922881042886,"2":-0.27806091470605,"3":-0.2433727855774371,"4":-0.15634913554452737,"5":-0.2269049545662971,"6":-0.25297582320820156,"7":-0.04433478932550219,"8":-0.1278189185746596,"9":-0.13323736045149154,"10":-0.05440057671116504,"11":-0.26881617982520317,"12":-0.16267270987495877,"13":-0.412771617161303,"14":-0.16673464276294805,"15":-0.0666323641886883,"16":-0.5183691131093423,"17":-0.2555288591795836,"18":0.06666398065329472,"19":-0.0708613997308258,"20":-0.20972374092713003,"21":-0.03449507932567521,"22":-0.02733319430921862,"23":0.16313450190348644,"24":0.12734218047757884,"25":-0.03687451785550092,"26":0.025431931362654207,"27":0.11602288470813389,"28":-0.12870983763589255,"29":0.13498005488544593,"30":-0.07885970350833778,"31":0.13979328335893385,"32":0.5610029296413701,"33":-0.1349114105718964,"34":0.0005592208518660386,"35":-0.0641006908339546,"36":-0.3276001764155606,"37":-0.037871376438493504,"38":-0.017078720507407708,"39":-0.19141828587367388,"40":0.06292835002679578,"41":0.016551689608267712,"42":0.00716498823622004,"43":-0.2719099880336522,"44":-0.1716775204209195,"45":-0.36788973375502476,"46":-0.3650096919753879,"47":0.013799055757832988,"48":-0.031001177945402518,"49":-0.22690191373994603,"50":-0.05108131739196057,"51":-0.1203950107541656,"52":-0.047450691872183585,"53":-0.16984287858170155,"54":-0.09383327097514017,"55":0.04570310391878567,"56":-0.29220376633534806,"57":-0.06843223591987922,"58":0.03300321413847792,"59":-0.026764989311452714,"60":-0.14242040602977982,"61":0.15971447841957173,"62":0.04311455947272869,"63":0.07891552004267662,"64":0.1839246877373472,"65":0.11679541470658204,"66":-0.21345550460903379,"67":-0.13239765109255044,"68":-0.34956033394713437,"69":0.01806866753324688,"70":0.07894962453446652,"71":-0.05922953433804043,"72":0.3469955151556245,"73":0.1538570134390882,"74":-0.1450703022449754,"75":-0.10295137444747217,"76":-0.3045507291237552,"77":-0.19013636887001586,"78":-0.198947020503844,"79":-0.07410637345364163,"80":-0.11151778168627657,"81":-0.29124920648988833,"82":0.10094031028265386,"83":-0.21412349843791773,"84":0.021311383858331402,"85":-0.1584421986972269,"86":-0.29154744560564083,"87":0.24249498497877278,"88":-0.25539303447460127,"89":0.13356032422766587,"90":0.04596959929873118,"91":-0.0008069538946899223,"92":0.19112116480140573,"93":0.145674570338887,"94":0.14116261835248958,"95":0.0574028451352318,"96":0.06703779090219968,"97":0.062463913260370194,"98":-0.04629817913881049,"99":0.0806210983144664,"100":0.12550338395429408,"101":0.12637674771566315,"102":0.020929477768788823,"103":0.061365372806428634,"104":0.2566165126909698,"105":0.15182580058302925,"106":-0.2543301442887962,"107":-0.2711729904431398,"108":-0.42986615757626756,"109":-0.1248631854340649,"110":-0.11378793191049029,"111":-0.12646037049929662,"112":0.18075556417173852,"113":0.1363819321428901,"114":0.045489643818865604,"115":-0.3225162120180594,"116":-0.011214843879819915,"117":-0.41477200655190577,"118":-0.4522532831923518,"119":-0.06173710710441027,"120":0.04781513153534363,"121":-0.06259960301472672,"122":0.012225328975656298,"123":0.29881577472900894,"124":-0.005646657446119679,"125":-0.038872850060638287,"126":0.09898009358700192,"127":0.05724929471216218,"128":0.04222702323012241,"129":0.01333439049787001,"130":0.0622149767600758,"131":0.27597515031260983,"132":0.0616128677717099,"133":0.03870590005263084,"134":0.25937874162542823,"135":0.20020169666463167,"136":0.23590875386072302,"137":0.03028100129374831,"138":-0.04446401860865057,"139":-0.03892867195539109,"140":-0.30730516999076873,"141":-0.20565614506381566,"142":-0.016214696877791063,"143":-0.05100448701866017,"144":0.13910099888876465,"145":-0.0670172728504742,"146":0.06617381485926446,"147":-0.3986350075374717,"148":-0.1585513772132068,"149":-0.4049073275277581,"150":-0.4413770367351578,"151":0.062134744591301916,"152":-0.07982343833792113,"153":-0.2548091751673653,"154":0.09308623614616562,"155":-0.029648598325855143,"156":-0.16219286716977638,"157":-0.42675799950517074,"158":0.02524173292204366,"159":0.1376390911441288,"160":0.08576671876601251,"161":0.43063678534710087,"162":-0.19449973686197988,"163":-0.23139695827859452,"164":-0.19157461900468883,"165":0.1078174540296201,"166":0.1357907282634594,"167":0.06973729965159975,"168":0.13509169219465,"169":0.2742570868936308,"170":-0.32889174765879003,"171":-0.18609385345988586,"172":-0.3164050596003739,"173":0.0322503224281097,"174":-0.06233377731885349,"175":-0.25148325082941236,"176":0.10617874368981609,"177":0.2049805613678064,"178":-0.028214425962561084,"179":-0.29082432403951125,"180":-0.34203671772053856,"181":-0.20087639511945565,"182":-0.1998422451534678,"183":0.10807284096349622,"184":-0.03227785932465575,"185":-0.24284226558104255,"186":0.38393111516156614,"187":-0.3819913171023565,"188":-0.11403309607114415,"189":-0.4988390362127275,"190":-0.08470588727234742,"191":0.18535948848807288,"192":0.006623015941147982,"193":-0.2092677480668015,"194":0.2818564393680233,"195":-0.08012752579398463,"196":-0.15733452427141714,"197":-0.08217138986074717,"198":-0.15135967086906177,"199":0.10190362796501776}},{"sx":5,"sy":5,"depth":8,"w":{"0":0.21655584916023143,"1":0.23961247413361236,"2":-0.19434622015194128,"3":-0.4737935656889061,"4":-0.16796167770967166,"5":-0.10686361956284364,"6":-0.051721235596508264,"7":-0.07337897976123661,"8":0.20080701650539598,"9":0.199211232377931,"10":-0.14301010296606856,"11":-0.3023841487615521,"12":0.11411405037581274,"13":-0.10412048775004443,"14":-0.26697833651057595,"15":0.0479270618844578,"16":-0.10994128464449678,"17":-0.04542482107718258,"18":0.11057840083785757,"19":-0.30544843027217183,"20":-0.12484534394860737,"21":-0.007570521639538986,"22":-0.07360851763641826,"23":0.166882698045194,"24":0.04239218914970411,"25":-0.013937334515420749,"26":0.11157601815100024,"27":-0.202768288772465,"28":-0.26981683273497203,"29":-0.21609699508187796,"30":-0.07714021336632762,"31":0.037660017754326786,"32":0.29536982387719923,"33":-0.1273986221294976,"34":-0.06294074362191991,"35":-0.2568211588160855,"36":0.19657764645648207,"37":-0.38783243354142755,"38":-0.0011232938583283366,"39":0.14894707899237483,"40":-0.004710178172454679,"41":-0.18930740088079312,"42":-0.17525217069066698,"43":-0.1302271785507151,"44":-0.08008652117295013,"45":-0.2854337329497921,"46":-0.13308161013721242,"47":-0.17063274332995693,"48":-0.07750615941134874,"49":-0.036683196904576464,"50":-0.30015753157028924,"51":0.04958868438810296,"52":-0.006161182828689211,"53":-0.0009435505245988019,"54":-0.15634119239824437,"55":-0.12697171309189886,"56":-0.1646272256601088,"57":-0.052573051647815706,"58":0.09413999886839232,"59":-0.12676121888769004,"60":-0.0805190504150592,"61":0.06028005607531679,"62":-0.16226123702750914,"63":0.0702253798114923,"64":-0.1490430692192013,"65":0.1565885254715485,"66":0.06837423729731039,"67":-0.1741043061750108,"68":-0.09173625052968311,"69":-0.09353191036554512,"70":-0.14009021020468343,"71":0.12952869519096827,"72":-0.04053304114662947,"73":-0.03092925924138653,"74":0.09688889028058538,"75":0.07309025012529267,"76":0.11097167237985996,"77":-0.47265150264439215,"78":-0.03365941841321891,"79":0.1330191385725749,"80":0.04876681262783267,"81":-0.21071844750962143,"82":-0.11599131693176103,"83":-0.16189498968410343,"84":-0.19958967597170094,"85":-0.09099552990896025,"86":-0.14919074601853763,"87":-0.12760850027006015,"88":-0.0703153343096537,"89":-0.02778922345099191,"90":-0.13783110390109077,"91":-0.14895161501987053,"92":0.0058635578442061175,"93":-0.13744915259636967,"94":-0.2637773694487334,"95":-0.07161657342164164,"96":-0.22249719598309364,"97":0.08148126717224896,"98":0.12392929021266767,"99":-0.21333895224748997,"100":0.10140722436161674,"101":-0.053798241405184584,"102":-0.25711584736494936,"103":-0.04816888316821845,"104":-0.10542691772201462,"105":-0.05600459077165265,"106":0.15807200646401467,"107":-0.0820432327922158,"108":0.1571664784443542,"109":-0.06509344412009506,"110":-0.08514886421541103,"111":0.1335613433691767,"112":-0.06922882813841287,"113":-0.3361865987570507,"114":0.04915279944690637,"115":0.08907106138722815,"116":-0.046224665287398665,"117":-0.28683850815927975,"118":-0.014361034985696531,"119":0.08899964086363497,"120":0.2540064882610333,"121":0.14911861114361732,"122":0.040728768095327994,"123":-0.13058834455584423,"124":-0.1312909880727441,"125":-0.2782771249040174,"126":-0.22183709085248204,"127":-0.01891792786625108,"128":0.028986676138364854,"129":0.06751610339055626,"130":0.1648734985107869,"131":-0.09086609933245593,"132":0.1567849747275098,"133":-0.09416133356483036,"134":-0.16774198282178218,"135":0.09164540392210117,"136":-0.1550563390792572,"137":-0.08578525012070565,"138":0.022058246698890727,"139":0.07761794192415866,"140":0.2224859133229716,"141":-0.08732611915168106,"142":-0.13468047600021762,"143":0.07981036673065497,"144":0.04612034736726851,"145":-0.15335722697471582,"146":-0.06977717904673982,"147":0.33350164632774104,"148":0.11468641490726299,"149":-0.22343246917858528,"150":0.03996407609744923,"151":0.000646848573606148,"152":-0.11116888793946603,"153":-0.24590496224957253,"154":0.0952654312210821,"155":0.23518850803532396,"156":-0.12366831322888129,"157":-0.0915811733055419,"158":0.02814233017005358,"159":0.049305562970255866,"160":-0.2692220641103847,"161":0.006043327819035428,"162":0.2592662087793659,"163":-0.0991411013352297,"164":0.01697822979157187,"165":0.00009321942854569835,"166":-0.10258200841124412,"167":0.032258358642943186,"168":-0.06445449522446522,"169":-0.06209018194498002,"170":0.13134484249805786,"171":0.16046920578409704,"172":0.2334073227715335,"173":0.09295328635136199,"174":-0.07463968136823632,"175":-0.11608290263119908,"176":0.025366952224366576,"177":-0.09674899970902771,"178":0.0573106539171207,"179":0.22512339050124758,"180":-0.21159443971279637,"181":0.175416359984251,"182":0.2322641817440178,"183":-0.15866415626763,"184":-0.14658285352994516,"185":0.037701595714841545,"186":-0.23298026552598577,"187":0.154664694668742,"188":-0.23799995791272088,"189":0.004936628346328423,"190":0.05659900215127447,"191":-0.25272881169168415,"192":-0.2111733918903025,"193":0.034964252685024975,"194":-0.25669039527343107,"195":-0.08117766998943793,"196":-0.32278270981947127,"197":0.05593593589280215,"198":-0.021338784529219088,"199":-0.1920916046677704}},{"sx":5,"sy":5,"depth":8,"w":{"0":0.2937592148931499,"1":0.052631473056689394,"2":-0.011288593757741593,"3":-0.17861892627487613,"4":-0.13273801699864896,"5":0.22444814351848585,"6":-0.22865579584689052,"7":0.029056288871043147,"8":0.2512550214578924,"9":0.1372940867319461,"10":-0.08071179141994156,"11":0.018891183236610515,"12":-0.1905614110103054,"13":0.0966906366815548,"14":-0.15385552707159858,"15":-0.059409922538466456,"16":0.38169803246984396,"17":0.45672475937442764,"18":-0.009262927862097002,"19":-0.1676338921609675,"20":-0.11334187762827834,"21":-0.2423237304573526,"22":-0.081537731061739,"23":-0.15007855576134768,"24":0.07121098507228593,"25":0.11217041555333931,"26":-0.10727219847995206,"27":-0.15373573010461525,"28":0.10952506464225613,"29":-0.18942444758246416,"30":-0.23479926647395127,"31":0.09803146627354956,"32":-0.09318065459532486,"33":-0.13649219603226187,"34":-0.2621874059450573,"35":0.010868409946493577,"36":0.1794291651031634,"37":0.03642175081478374,"38":-0.12667937361361223,"39":0.13150695597297454,"40":-0.08366013168397335,"41":-0.48781084333075264,"42":-0.1404029371513751,"43":0.06347258338628994,"44":0.10954156898833753,"45":0.003186976648721668,"46":0.08146111939498347,"47":-0.19967839566296583,"48":0.26154326279455076,"49":-0.1984443969853235,"50":-0.09035984786498653,"51":0.026930641558152755,"52":0.3116198945559515,"53":0.06556789466999527,"54":-0.3464422535353594,"55":-0.09201446871378438,"56":-0.17413618499768602,"57":-0.21953268371403914,"58":-0.04172451008441153,"59":-0.04411746309160859,"60":0.05644797706794775,"61":-0.3988771217568145,"62":-0.013149082117906625,"63":0.02378987714077847,"64":-0.37568393851260584,"65":-0.21404877556769988,"66":-0.09673282802631811,"67":0.24103354923287384,"68":0.03600879211571668,"69":-0.00996513626234512,"70":0.11808094866704198,"71":-0.05904828772295258,"72":-0.16732684651900223,"73":0.08878321750275531,"74":-0.17354982468912838,"75":0.23893125525005204,"76":0.04152174352569274,"77":0.31067840299632876,"78":0.1536336467406135,"79":-0.10838644204093945,"80":-0.2031201665701331,"81":0.3037617961957515,"82":-0.025509187260496995,"83":-0.07023655771454426,"84":0.03635379678107706,"85":-0.3301377443121288,"86":0.26589426814973116,"87":-0.10208399683705627,"88":-0.03167198958066221,"89":-0.5568536564456212,"90":0.08560527744032667,"91":-0.12093270421777919,"92":0.08537387434209842,"93":0.10041512514848164,"94":0.013167021948811308,"95":0.03082445493695545,"96":-0.04116963811814389,"97":-0.30419853077786824,"98":0.06669267325727923,"99":0.08410375657157926,"100":-0.14369867318986923,"101":0.42594111050169214,"102":-0.2503776368604449,"103":-0.2700589060589909,"104":-0.19732283569320483,"105":-0.09818091084024917,"106":-0.21603145958843742,"107":0.10440934679074103,"108":-0.3777530066827301,"109":0.2497835460844784,"110":-0.026191088256308243,"111":-0.41972126301791357,"112":-0.27261696392698614,"113":0.13980212647891554,"114":-0.01618420972489934,"115":-0.23186771544232979,"116":0.012435637416307389,"117":0.061850438767943154,"118":-0.10400320670640714,"119":-0.18945815301055252,"120":-0.13982320881878557,"121":0.24737479868893036,"122":0.14357235352500014,"123":-0.11634450675273723,"124":-0.316025010449048,"125":0.05530552346031411,"126":-0.03175933185882239,"127":0.23315078937170722,"128":0.22435734866142834,"129":-0.12813957451094463,"130":0.09429205889483698,"131":-0.014896918606738257,"132":-0.07744497257310333,"133":-0.11014769074506324,"134":0.03483252951198288,"135":-0.12831134858643514,"136":0.04871589002224281,"137":-0.14031260621035735,"138":-0.11217428380830928,"139":0.10395090656042198,"140":0.26400200873637825,"141":0.23831270174627892,"142":-0.032769740285798946,"143":-0.430079512881593,"144":-0.3360769458064831,"145":-0.22247844266911576,"146":-0.16200799026914994,"147":-0.1815301693202248,"148":0.12983946621402623,"149":-0.002549282642395379,"150":-0.03923774980288645,"151":-0.2202725674045864,"152":-0.08494410738263808,"153":-0.10710024838403139,"154":-0.17011679454589448,"155":0.1591034333586644,"156":0.02349524360950323,"157":-0.09164718024297447,"158":-0.019251892702048235,"159":-0.19159897901520845,"160":-0.1769368583972966,"161":-0.05807119523086001,"162":0.09261399763503801,"163":-0.060349271735693745,"164":-0.2428800042227613,"165":-0.028315801625534584,"166":-0.03184400625866227,"167":0.16919849497298667,"168":-0.1926276990334547,"169":-0.09826757371876936,"170":0.20903058005645989,"171":-0.04711530354614363,"172":-0.015341431488874714,"173":-0.07158488712903913,"174":0.20006837635451763,"175":0.11579703956892279,"176":-0.13366375143996814,"177":0.02219989433291413,"178":-0.0842921071792397,"179":-0.22763218985145509,"180":0.17355625354048554,"181":-0.09416541255242289,"182":-0.07284272170784468,"183":-0.27057194213493013,"184":-0.24584919576191394,"185":-0.12551310566994983,"186":-0.23531508424168462,"187":0.03417372540243986,"188":-0.0208565708379305,"189":0.10975452738994733,"190":-0.13248297082805216,"191":-0.4156682115539367,"192":0.0032068137257211574,"193":-0.05207856815712341,"194":-0.2140079897434446,"195":0.10213720723760694,"196":-0.13689505895742432,"197":0.17571153400965464,"198":-0.09059027018023694,"199":-0.2916794540148795}},{"sx":5,"sy":5,"depth":8,"w":{"0":-0.16778972440894693,"1":0.006972045623348796,"2":-0.11503318898327235,"3":0.07502384647340346,"4":0.1928495803191059,"5":-0.05010510870815213,"6":0.21180774913699815,"7":-0.27317722898204416,"8":-0.21423767479198974,"9":-0.047092359039004224,"10":0.12326438159078049,"11":0.18488833635972318,"12":0.23685269444699378,"13":-0.4068508475107004,"14":0.12005496945023424,"15":-0.20620827302771846,"16":-0.18992058567370984,"17":-0.12786504636162888,"18":0.13698666116446614,"19":0.31198093115474695,"20":-0.03489645635412343,"21":-0.5179965433874462,"22":0.17112117107609934,"23":-0.1165188423756894,"24":0.1551931936651397,"25":-0.4781735809517293,"26":0.19450594408776192,"27":-0.12092003932862687,"28":-0.09129924748982207,"29":-0.38722183585326636,"30":0.1452193617545315,"31":-0.07121535244879756,"32":-0.04354185084753417,"33":-0.2747240497528055,"34":0.07485372510987641,"35":0.09217909686344875,"36":-0.04477498209232043,"37":0.17331934516031608,"38":0.09581082065490466,"39":-0.04799827629846835,"40":-0.07283293461591622,"41":0.30562462377090377,"42":-0.07451177485587236,"43":0.013012758635878719,"44":-0.1968221704118446,"45":0.1100493892062622,"46":0.12545996491803207,"47":-0.16848978378577292,"48":0.03943111008253415,"49":0.16195179577864832,"50":0.17551179722728333,"51":0.16920809563862407,"52":-0.4492223731888061,"53":-0.3478027320104207,"54":-0.056836425909849046,"55":-0.1562167566055526,"56":-0.12398523521784925,"57":-0.20170780909461367,"58":0.1850910366372999,"59":-0.14061244007198861,"60":-0.27470407504635963,"61":-0.5058355657073178,"62":0.16345132462896,"63":-0.04752346813168511,"64":0.1903243973777465,"65":-0.2916397206719626,"66":0.020600188855268535,"67":-0.22301585885872352,"68":-0.33557648664033357,"69":-0.1795844576109071,"70":-0.010244138801200708,"71":0.13679893646847038,"72":0.12925034778343442,"73":0.08575609402650446,"74":-0.08674573556100365,"75":-0.25009771606183584,"76":-0.35234066195100944,"77":-0.022999704485617944,"78":-0.07720368896955378,"79":-0.2570961952003146,"80":-0.016144130033119656,"81":0.06553680143385283,"82":-0.10177732023772149,"83":-0.37348607182033966,"84":-0.33996005484813324,"85":-0.08856553133517903,"86":-0.10585837211556498,"87":-0.019249207248725114,"88":-0.16301800570282238,"89":-0.20696929437883804,"90":0.26216260570242333,"91":-0.1962977092535583,"92":-0.21589477369589716,"93":-0.43488937419398543,"94":-0.011142616341808038,"95":0.12146887402724431,"96":0.298963633867962,"97":-0.3837507898646653,"98":0.12236837063236368,"99":0.06240794406453866,"100":0.040311936450238346,"101":0.01168688998739653,"102":-0.045529492648102146,"103":0.20650669383306203,"104":0.2182357280718412,"105":-0.18048722070148518,"106":0.13245184432368365,"107":0.00650762711793023,"108":-0.032159624777263376,"109":0.22291296568353577,"110":0.07571710893962859,"111":0.09687025624486965,"112":0.08289915351070895,"113":0.12218711752497172,"114":-0.5274969043130111,"115":-0.3142979974180987,"116":-0.3726821720865883,"117":-0.05277668785086475,"118":-0.14610482336127076,"119":-0.18363168814761058,"120":-0.19652555519396755,"121":-0.04163576849848053,"122":0.10862076725221452,"123":-0.28471118011925756,"124":-0.34809930579097725,"125":-0.16457555817120112,"126":-0.11946447199637901,"127":0.18300999046263652,"128":0.06583324167474289,"129":0.026388896615650397,"130":0.28525886622869795,"131":-0.021438418749592462,"132":-0.1012152601297779,"133":-0.253258306520803,"134":0.06410588018953742,"135":0.3174764640450704,"136":0.36880733195284676,"137":0.03336422357145496,"138":0.23310933625993474,"139":0.17987030701092735,"140":0.06810939234217243,"141":0.06724432326532094,"142":0.1027447992571239,"143":0.07379871572502773,"144":0.2902242727043844,"145":0.07885580718935249,"146":-0.19556711200371657,"147":0.15410657215559334,"148":0.012528986661646337,"149":0.023296788407800893,"150":-0.0012198181349724494,"151":-0.3101218024138716,"152":0.010004892670524039,"153":-0.1634310166264501,"154":-0.19190658261192123,"155":-0.06157926270664138,"156":-0.17071115824405833,"157":-0.10501646443636799,"158":-0.3884651371131814,"159":-0.23984809468635893,"160":-0.021920211891861364,"161":-0.33709902913234,"162":0.20817508263081133,"163":-0.10569856616200422,"164":-0.2123190769527908,"165":-0.13909316534601315,"166":-0.23271053441490236,"167":0.1569003237187357,"168":0.2088477454345697,"169":-0.04764727245491958,"170":0.2491631955055505,"171":-0.10198794417747965,"172":-0.013854995497643342,"173":-0.08955307887684961,"174":-0.17765321404349377,"175":0.41517732579227945,"176":0.28503915907669586,"177":-0.15699887000392754,"178":0.2424803068994137,"179":-0.046486542669902535,"180":0.052612745646792046,"181":-0.13868745571596644,"182":0.07430007826155391,"183":-0.012730598895926573,"184":0.09268258090323443,"185":-0.22111675666319414,"186":-0.44882017386772993,"187":-0.08087871924761168,"188":-0.029453642893070175,"189":-0.3229527018220826,"190":-0.16605243104436496,"191":-0.22731839992269387,"192":-0.1631020731986307,"193":-0.30067261307471227,"194":-0.27248325220826003,"195":-0.0967513171880355,"196":-0.016542236129557013,"197":-0.30491283734668145,"198":-0.18027682350605598,"199":-0.11483988679751841}},{"sx":5,"sy":5,"depth":8,"w":{"0":-0.11134770427957945,"1":0.026048458902460818,"2":-0.05982338987879501,"3":-0.00846102614436475,"4":0.002135261813940391,"5":-0.05095649458124537,"6":-0.043437194687939676,"7":-0.03903688132915664,"8":-0.05675590514259058,"9":-0.07504071491639894,"10":-0.0027878134983380645,"11":-0.036228014298737454,"12":-0.028568433960380727,"13":0.022202543587036154,"14":0.033771150778350224,"15":-0.058863432142755974,"16":-0.08495048721647583,"17":-0.06356431880327758,"18":0.0721821629694849,"19":-0.22513268068282738,"20":-0.078929285901458,"21":0.09182880180533284,"22":-0.08663892038635528,"23":0.08669788805032834,"24":-0.08910381513306788,"25":0.03056931891610004,"26":0.16569110654720912,"27":-0.11354763421101166,"28":-0.08031533767204865,"29":-0.06170073491428478,"30":-0.025300745893385584,"31":0.17678260941883572,"32":0.0316352211797249,"33":-0.28468043480123617,"34":0.14700060744211366,"35":-0.1267996480631412,"36":-0.36147390683959246,"37":0.06523564758345457,"38":0.15370462934752324,"39":0.04236024314997138,"40":0.024268501982054037,"41":-0.04169455213431487,"42":-0.003240522461686379,"43":-0.07489168133333668,"44":-0.08487561482832616,"45":-0.06749060531526728,"46":0.002957813644919193,"47":0.0336215172023073,"48":-0.02378514469712255,"49":-0.20178289136744815,"50":-0.11587745290141849,"51":-0.07025603733650328,"52":-0.11368929117877508,"53":-0.043258235997684046,"54":-0.004232075116697952,"55":-0.18964945535723712,"56":-0.20816085337182036,"57":0.023607048239140165,"58":0.03043263202374409,"59":-0.1129269594405362,"60":-0.10224808142961245,"61":-0.20177395359695513,"62":-0.08033250101675923,"63":0.07261972812571124,"64":-0.11752349962447792,"65":-0.09070894221046107,"66":0.20423777952673344,"67":-0.10876658250420532,"68":-0.2687993990711556,"69":-0.2198503721117683,"70":0.0688467619949896,"71":0.31300148467382344,"72":-0.016953534393068143,"73":-0.10292455493460352,"74":0.0355893527164503,"75":-0.15265018523590937,"76":-0.37947979229747975,"77":-0.1716730103501411,"78":-0.051948336085923315,"79":-0.1641239076626375,"80":-0.02888745699159669,"81":-0.08403215094985954,"82":-0.004777597566771276,"83":-0.0369923032078231,"84":-0.008295437593608386,"85":-0.11328689008889217,"86":0.05495350541173353,"87":0.0006248753034332334,"88":-0.019599603098983825,"89":-0.1240187446192298,"90":-0.07691488141348157,"91":-0.09001978856750266,"92":-0.041626782616309616,"93":-0.07477696596524325,"94":-0.08534909427704065,"95":-0.11128957906595618,"96":-0.03795024874855818,"97":-0.12388326785425176,"98":-0.10971947415985121,"99":-0.0727462969410194,"100":-0.14521624386356463,"101":-0.03836031709641332,"102":-0.025166400111425933,"103":0.14603078673444309,"104":-0.06793770016047437,"105":-0.057477180076142234,"106":0.1906932824523015,"107":-0.019013917068086233,"108":-0.4288644866178383,"109":0.04749967406292176,"110":-0.08975280362366148,"111":0.2470147651204015,"112":-0.23065607168678562,"113":0.27699891182005915,"114":0.08021702937410265,"115":0.070211081276929,"116":-0.010101518485414972,"117":-0.1513997351033359,"118":0.07028900113181859,"119":-0.10227056664678617,"120":-0.00845685915094683,"121":0.06437238797013033,"122":0.002012191270625163,"123":-0.17142277585346025,"124":0.020695407268525413,"125":-0.03754924296691097,"126":0.037898659775248394,"127":-0.08771918734203646,"128":-0.14574888249728482,"129":-0.17846969707672086,"130":-0.08242543032712159,"131":-0.17237422290037382,"132":0.003359393459162564,"133":-0.12211026170131087,"134":0.03014447492844825,"135":-0.06458488446801135,"136":-0.13196290567358315,"137":-0.14989430604912612,"138":-0.130947631518788,"139":-0.08932404705331315,"140":-0.04712845896541707,"141":-0.15271341411583683,"142":-0.03888464929868255,"143":0.0005206092538274159,"144":-0.06696215808611516,"145":-0.06893464248113136,"146":-0.17206947701926753,"147":-0.1829053770754561,"148":-0.09992151023995374,"149":0.07970813567298343,"150":-0.05626560236422602,"151":-0.08353158235657265,"152":-0.22172167491968936,"153":0.12214972056092348,"154":-0.07666823926892496,"155":-0.10413393677095073,"156":-0.21953321556705988,"157":0.09503859470332142,"158":0.010995471660006024,"159":-0.07182298305518177,"160":-0.06358418798562389,"161":-0.14357321108740534,"162":-0.09301717240685954,"163":0.043069964617643536,"164":-0.00977578531518441,"165":-0.09417834490652092,"166":0.08119011845912237,"167":-0.13937374946349868,"168":-0.0709500345837459,"169":-0.18720409399652263,"170":-0.13003785730273118,"171":-0.0311996697796621,"172":-0.015249971532310789,"173":-0.05008182632812043,"174":-0.08327551465023034,"175":-0.13624406394304645,"176":-0.04538606479469256,"177":-0.14384691228843516,"178":-0.053966463381039324,"179":-0.03242987702055117,"180":0.07275278680427169,"181":-0.0011505300358593202,"182":-0.06463816203062832,"183":-0.15634313637882521,"184":0.05411955421635852,"185":-0.06504545380979641,"186":-0.15193761473596118,"187":-0.06442781562264471,"188":-0.09200101938981718,"189":-0.05017430514031119,"190":-0.07601456782056046,"191":-0.23782626134007198,"192":-0.025436892311630238,"193":-0.03502697186458999,"194":-0.3137365488520944,"195":-0.30148635220580794,"196":-0.12332640598530699,"197":0.23435433343712359,"198":-0.19785120124085506,"199":-0.05124649718032393}},{"sx":5,"sy":5,"depth":8,"w":{"0":0.15650983462291654,"1":-0.0090960645620845,"2":0.20129462206851703,"3":-0.09787245680075453,"4":-0.08310657361623137,"5":-0.057920499134653546,"6":-0.011371702920468194,"7":0.19929744954327278,"8":0.10131503020852413,"9":-0.0348007167279094,"10":-0.10100610289836982,"11":-0.029457056618184103,"12":0.23232701675309272,"13":-0.3257664464451144,"14":-0.1076818073842529,"15":0.06459414164781761,"16":0.1310430978439956,"17":-0.10785388231580202,"18":-0.28538333732411286,"19":-0.21673911919869085,"20":0.17392008162098777,"21":-0.1971900526115107,"22":-0.41303975625983247,"23":0.026471692083204115,"24":0.03926921231603483,"25":-0.06484871612600483,"26":-0.1248795964297968,"27":-0.44635273440661233,"28":-0.11687937728804368,"29":-0.10521303086529839,"30":-0.4053718897325697,"31":0.04853819762710489,"32":0.02395565771231186,"33":-0.05400554813617368,"34":0.2217718734543796,"35":-0.10728708901318944,"36":0.25656004474348704,"37":-0.07714567182699147,"38":-0.1710022000177783,"39":0.06217426007582625,"40":0.19938207309867076,"41":0.0444102411153419,"42":0.006469788204539196,"43":0.08170319325290262,"44":-0.392684654272874,"45":-0.3188445831839085,"46":0.012500132371177636,"47":0.04494566637785387,"48":0.03540697505505226,"49":0.004633999792010991,"50":0.009696338891186467,"51":-0.03772841408338172,"52":0.034142805364074776,"53":-0.5095677817787978,"54":-0.11422793495583144,"55":-0.1102515816030429,"56":0.26422628485638555,"57":-0.4326093819586167,"58":-0.3219886265847698,"59":-0.13996099103632778,"60":-0.046413795153901316,"61":-0.5214697869208604,"62":-0.24156967828114273,"63":-0.29138365236890346,"64":0.1587514614876363,"65":-0.04089875265676154,"66":-0.017571654398694916,"67":-0.013334934505535564,"68":-0.15980302767708104,"69":-0.20726754442231723,"70":-0.1716508030123337,"71":0.06908166202816787,"72":-0.07527458996112792,"73":-0.018143750635403157,"74":0.22236846571314492,"75":-0.058888291870915634,"76":0.03300495969608112,"77":0.13965009143766705,"78":0.0807657512368611,"79":0.20926507410208872,"80":-0.09348354766067336,"81":0.22127739682077885,"82":0.11521898110230847,"83":-0.17379544830489113,"84":-0.28764377891737614,"85":0.024765262037448325,"86":-0.1274753888854517,"87":0.2728332883634653,"88":-0.07356862150568744,"89":0.1983763563280509,"90":-0.06086695565703081,"91":-0.16743681102365188,"92":0.04748327141392063,"93":-0.29215535088446415,"94":0.017418858204400773,"95":-0.1586015731683684,"96":0.05974320878808365,"97":-0.24867199012287294,"98":-0.41024130924471336,"99":-0.18190515176153463,"100":0.04921070907141479,"101":-0.24266306428291093,"102":-0.2385082561464862,"103":-0.09963021108882675,"104":0.04297962496723933,"105":-0.1270616325435458,"106":-0.1139654149892355,"107":-0.09422243453638739,"108":-0.2537513682511361,"109":0.15913844440174155,"110":-0.19300975142329532,"111":0.2828841475257966,"112":-0.1807099640737977,"113":0.03109066050415246,"114":0.13514767761899274,"115":-0.13496077814874183,"116":-0.23393603037331437,"117":0.1833985588632518,"118":0.08367667550159938,"119":0.027945462651554943,"120":-0.3245958476158188,"121":0.018799287473238162,"122":0.09933624138851826,"123":0.028634378953122517,"124":0.08972055291255755,"125":0.03162577785332736,"126":-0.03419638331416153,"127":0.14238941645547037,"128":-0.1679815246912696,"129":0.18474398080750778,"130":0.009391129341306162,"131":0.02116445445927691,"132":0.10482615392688992,"133":-0.3342307761512195,"134":0.19643386768481383,"135":-0.22384538148992106,"136":-0.1298744109927737,"137":-0.16099883115535593,"138":-0.2714080957032516,"139":-0.016668547668158583,"140":0.09051168092819732,"141":-0.23862893348713718,"142":-0.017363144353010663,"143":-0.09916588371146383,"144":-0.06594484496161448,"145":-0.05000846033064907,"146":-0.11389534336066519,"147":0.005735270741632716,"148":-0.11692887262535588,"149":0.2760035090180784,"150":-0.14897079974684208,"151":0.0064394053642024,"152":-0.301447428694143,"153":0.20704147113377713,"154":-0.2015270630709906,"155":-0.1311475489637918,"156":-0.1622139012848118,"157":0.18677369879519237,"158":-0.1947316869880646,"159":-0.03280424722042885,"160":-0.07555311805699184,"161":-0.02611677161106484,"162":-0.12310858969687159,"163":0.2638626797105169,"164":-0.14894313074153517,"165":0.11744229640556467,"166":0.15713344392203302,"167":-0.032357025500224186,"168":-0.18527584419624404,"169":0.1112380206490034,"170":0.09031979330137584,"171":0.17170501317253553,"172":-0.03950721807397025,"173":-0.048427195010202935,"174":0.16756058607021895,"175":-0.02326340141860723,"176":-0.13123898729785394,"177":0.005289032078668361,"178":0.012433947174749044,"179":-0.14497067489949936,"180":0.13777459150132912,"181":-0.12414074472572524,"182":0.07727714975274366,"183":-0.006677941159598593,"184":-0.06142600449322589,"185":-0.07538127286229475,"186":-0.08040803792418433,"187":-0.13004583424723648,"188":0.3489007473216631,"189":-0.0918028738570805,"190":-0.03397549845376617,"191":-0.00010366197674229556,"192":-0.17492641993073435,"193":0.039913551161269815,"194":-0.0835280998041077,"195":-0.1031396577883158,"196":0.30028588657197697,"197":-0.12914136416703687,"198":-0.18469525847873422,"199":-0.14053953858356485}},{"sx":5,"sy":5,"depth":8,"w":{"0":-0.1459770395014744,"1":0.005907142891221135,"2":-0.03930026808905674,"3":-0.09824285319281438,"4":-0.2097154994956396,"5":-0.07060178239717682,"6":-0.2016806257475484,"7":0.15409185204795287,"8":-0.025861984577085495,"9":0.030292697717530716,"10":0.03204635944375126,"11":-0.14761761518712202,"12":-0.18666227949331482,"13":0.04245041294630416,"14":-0.019661325476262047,"15":-0.01702456740578418,"16":0.06548533145155071,"17":-0.08336427140833168,"18":-0.010970763576356304,"19":-0.11210465957313179,"20":-0.15377016692377588,"21":-0.10328123713534347,"22":-0.16924724160569704,"23":-0.12200875311463287,"24":0.05983610384234733,"25":-0.09591632893006256,"26":-0.0205629176458211,"27":0.03701925500144682,"28":-0.013291219866911837,"29":-0.08839695874776582,"30":-0.10147800060676308,"31":-0.14882645778523582,"32":-0.2965156666088808,"33":-0.039113428504148194,"34":0.16649591366189115,"35":0.0905328115936303,"36":0.1790074515303302,"37":-0.3156993959071028,"38":0.12834354560354375,"39":0.21262744268840392,"40":-0.0057038005547638965,"41":0.04464726348283249,"42":-0.20346238929232824,"43":-0.056641282509376056,"44":-0.3134796418695935,"45":-0.12552523364369259,"46":-0.10693927294475956,"47":0.043539876985296086,"48":0.00575317174913609,"49":-0.10870623758557751,"50":-0.1525652852004577,"51":-0.15283580404438252,"52":-0.27607384513027994,"53":-0.09828916576017617,"54":-0.13618892691884046,"55":-0.23765842505130644,"56":-0.09742268341616221,"57":-0.033380369614075645,"58":0.12189378742825262,"59":0.024015009579988186,"60":-0.31008500467879746,"61":-0.14063150131934932,"62":0.019541821832151116,"63":0.10271438028974528,"64":0.0012765002656213611,"65":0.013033600303043935,"66":0.0905725607574243,"67":0.04989021366342212,"68":-0.11122170062399273,"69":-0.07457466086151592,"70":0.146103540264478,"71":0.055221465494654974,"72":-0.0023696250567657434,"73":-0.008264419689254874,"74":0.14500002689917255,"75":0.19303639167325898,"76":0.01739070162331274,"77":0.2347058825841302,"78":0.44663497423238463,"79":0.13778842438599925,"80":-0.28090429794580485,"81":-0.037359256079873074,"82":-0.1412914341180047,"83":-0.21174337756354475,"84":-0.14312652374070922,"85":-0.061027880885502074,"86":-0.30911133176269634,"87":-0.044855358362384634,"88":-0.21942807888986626,"89":-0.0034240065196534325,"90":-0.1515223284945902,"91":-0.20613346903361296,"92":-0.08179684307996954,"93":0.12324309854925336,"94":-0.31827039176477817,"95":-0.1013585740023769,"96":-0.07274955780101826,"97":0.1438171505940477,"98":-0.18544212047430117,"99":-0.1671607180058379,"100":-0.34991849795582686,"101":0.4748164636510122,"102":-0.09447236210419531,"103":0.03304455774196832,"104":-0.3030787971415986,"105":0.24379400490468364,"106":-0.09581471993121851,"107":-0.1317320440053084,"108":-0.29851574463662767,"109":0.4105452028433176,"110":0.09086668077593213,"111":0.09537042059485633,"112":-0.14710133898135344,"113":0.17629701651185864,"114":-0.03271922369144362,"115":-0.11181533954412258,"116":-0.4035506228189939,"117":0.30799198344709516,"118":0.07371342697894201,"119":0.0038949602581548103,"120":-0.33305945227403105,"121":-0.06595936472384054,"122":-0.11865028902437147,"123":-0.10125553448281209,"124":0.03705122042001466,"125":-0.1545978902546492,"126":-0.04529507044291625,"127":-0.0666439189554522,"128":-0.1204445919715811,"129":-0.03393272348991835,"130":-0.17737913454880477,"131":0.0025367257479047504,"132":0.02211429176127884,"133":-0.10349375704526724,"134":-0.1628454988368103,"135":-0.012001891725944649,"136":-0.08580826813417919,"137":-0.08359737703189893,"138":-0.1353729203890338,"139":-0.018144965019783806,"140":0.24626308883673376,"141":0.07451186542498708,"142":-0.27597696202167415,"143":0.010120011599068399,"144":-0.4444182562717462,"145":0.06562305599025955,"146":-0.15558691365249375,"147":-0.07228687950370952,"148":0.23147261412721498,"149":0.20826202547135622,"150":-0.3624019413467949,"151":-0.027534264765747267,"152":-0.3089365913733199,"153":-0.16091680807370315,"154":-0.10177016980599392,"155":0.004835216053231347,"156":0.02985481728178477,"157":-0.2651124467090864,"158":-0.2209562229988849,"159":-0.28340433462353015,"160":-0.1386197294667436,"161":-0.05959715274206392,"162":0.052247435237565316,"163":-0.049908197409711065,"164":-0.11330858623313958,"165":-0.19390168103433802,"166":0.019445881780427814,"167":-0.15416999602397427,"168":-0.13886402013764487,"169":-0.10526056184445876,"170":-0.01726954772729355,"171":-0.05444992096552869,"172":0.09168221974197156,"173":-0.28605112762241036,"174":-0.09879272802969095,"175":-0.20418349650921358,"176":-0.017160511561682256,"177":-0.09884981047146195,"178":-0.053692288858867995,"179":0.010617832629975637,"180":0.1915109786030225,"181":-0.18551601463557055,"182":0.07369760479448131,"183":-0.023010933828695783,"184":-0.2286609647438082,"185":0.01507687707831724,"186":0.14354483158816417,"187":0.22127929020587925,"188":0.3396107133538743,"189":-0.06986076669698298,"190":0.13764141417238648,"191":-0.1762267741104957,"192":-0.3632954997004209,"193":0.04673841517690545,"194":0.05872711001489102,"195":0.1343831730080389,"196":0.33934377722826553,"197":-0.09621180368435978,"198":0.19159849750093635,"199":-0.18436277498572792}},{"sx":5,"sy":5,"depth":8,"w":{"0":-0.14793155914733586,"1":-0.13899547884506178,"2":-0.12895556356239027,"3":-0.0016756559897675568,"4":0.0759478384117192,"5":0.017712153067373507,"6":0.09749579075211753,"7":-0.10453130136441889,"8":-0.17777803048626512,"9":0.13883082311338665,"10":-0.0990325663079655,"11":-0.011381987012415074,"12":0.1302192558683363,"13":-0.09417383449336364,"14":0.09112683553089164,"15":-0.07609594926916635,"16":-0.17517338517342396,"17":0.0829340859923842,"18":0.14140119524409803,"19":0.05275881752393318,"20":0.14865945028343294,"21":-0.009193944659936573,"22":0.16526794275930037,"23":-0.08433742446943131,"24":-0.1970561581376509,"25":0.06446426252481577,"26":-0.030132603659740624,"27":0.16562519187815303,"28":0.03253284820272711,"29":0.023008054959365948,"30":0.23592303722974173,"31":-0.0062562608281889484,"32":-0.083401748817177,"33":0.03445775685143481,"34":0.026752726198094275,"35":0.18566561561297204,"36":0.13893236681138554,"37":0.13356228484346613,"38":0.13050770274257484,"39":-0.06917056453487265,"40":0.10542716965778788,"41":0.0927470042984273,"42":-0.07796451386513877,"43":-0.10007863397261887,"44":-0.09042097740240329,"45":-0.11477695092962126,"46":0.00625587828518812,"47":0.09018547161151741,"48":0.03609812430018058,"49":0.0891992526668803,"50":-0.09642434992163557,"51":-0.06537439166400626,"52":0.00022048470881602233,"53":-0.14084428955515632,"54":-0.06175563629920655,"55":-0.046601661874107615,"56":-0.06735578091547359,"57":0.13263673603614895,"58":-0.06130068812997404,"59":0.01929385300342638,"60":-0.13241862503647,"61":0.2511616266929101,"62":0.23701407460107238,"63":-0.051309448692566026,"64":0.07402780184782991,"65":0.2400633489377148,"66":-0.08192296681433082,"67":0.07815800540415974,"68":-0.25330607176003456,"69":0.2927866444127201,"70":0.06815277568007556,"71":-0.010359064827744485,"72":0.2083693198245113,"73":0.15508149867137141,"74":-0.04596716692671954,"75":-0.008655403556395207,"76":-0.38813423423899335,"77":0.49574009489829224,"78":-0.01035422180949677,"79":0.0362740129286454,"80":0.03989317015713104,"81":0.2646575172430189,"82":-0.10461782123959365,"83":-0.17941878544625825,"84":-0.14258387505089665,"85":-0.048498837610732155,"86":0.03471468589925879,"87":-0.09408062092979558,"88":0.0005838329436294756,"89":0.28867200448162295,"90":-0.27181803517743525,"91":-0.09892411633087805,"92":-0.04296521537580332,"93":0.22916492128489474,"94":-0.06893054606247145,"95":0.05296023949196123,"96":0.050386466207929075,"97":0.3239516792471544,"98":-0.14744275633108195,"99":-0.10793072626437546,"100":-0.24674501575614213,"101":0.2319243431018356,"102":-0.0340959645048127,"103":-0.20817398887848632,"104":0.0657814202280579,"105":0.21037649539351896,"106":-0.24062093305984983,"107":-0.3900183605866541,"108":-0.14831019550010255,"109":-0.023653177379598277,"110":-0.34592221393140915,"111":-0.13981832562435506,"112":0.024777591573051608,"113":-0.19176403779797807,"114":-0.07197533235390821,"115":-0.21344099893882887,"116":-0.0411449278445523,"117":-0.24824963952402115,"118":-0.2600867152827294,"119":0.03201772612901495,"120":-0.13355880832929393,"121":0.04912167802202097,"122":-0.13724238416531911,"123":-0.05132277897687416,"124":0.015330484533950141,"125":-0.10823974166342251,"126":-0.003324076971898026,"127":-0.026199603708850706,"128":0.011329914184817063,"129":0.11724756237855267,"130":-0.05119954858747522,"131":-0.027281858860654512,"132":0.04442463882757586,"133":-0.08788166157798158,"134":-0.07612339666715393,"135":0.06804927659093706,"136":0.032210218247565,"137":-0.07937597117333285,"138":0.09363925947831991,"139":-0.22001918166109863,"140":-0.04715829378659192,"141":-0.2923613474274143,"142":-0.3017372381770861,"143":-0.11488810878093425,"144":-0.018870638121409062,"145":-0.4206986290476874,"146":0.06162714423263496,"147":-0.06403381694478179,"148":-0.006185229530883696,"149":-0.060125211331728386,"150":-0.316696437925498,"151":0.08318003537778786,"152":0.19064745309245215,"153":-0.12622613985179432,"154":0.009773487724072109,"155":0.17640954982598914,"156":-0.22730724572017846,"157":-0.027771857875986947,"158":-0.11250619401145352,"159":0.1056633874498414,"160":-0.03234556131848727,"161":0.05633266822300208,"162":-0.035237972951313215,"163":-0.1281317310861389,"164":0.05599581885227879,"165":0.12740538381952818,"166":-0.0461546261565558,"167":0.10910027529273662,"168":0.19760124115600933,"169":-0.12910236258972188,"170":0.2575482520839736,"171":-0.10358104659663109,"172":0.17575361189019473,"173":-0.24280543504196184,"174":-0.043533066488065694,"175":0.1593362909670609,"176":0.013517112644554092,"177":-0.30533821840920017,"178":0.3361101969397269,"179":-0.171880751803201,"180":0.0671373353315066,"181":0.0022876720487185064,"182":-0.188757808908991,"183":-0.0016344683183242992,"184":0.22551562539383443,"185":0.05338154892864741,"186":0.05061539955168822,"187":0.16165649957408898,"188":0.0009694846565742373,"189":0.19554712084150366,"190":-0.10375580003945507,"191":0.027619631090178464,"192":0.03243342031571037,"193":0.11205268192647658,"194":0.14237727316301527,"195":-0.12225593125897699,"196":-0.31880804643167027,"197":0.22280253680174902,"198":0.018450557558442205,"199":0.058352812547566774}}],"biases":{"sx":1,"sy":1,"depth":16,"w":{"0":-0.03200015120390502,"1":0.004561191717877494,"2":0.1171275845684932,"3":-0.13634379150352763,"4":-0.12025512281806167,"5":0.08231130062677267,"6":-0.11998754612464124,"7":0.08185996657820045,"8":-0.1660926066919126,"9":0.024812233017521005,"10":-0.11386958154088381,"11":0.0493817505801726,"12":-0.050519451201946106,"13":-0.10057188680127908,"14":-0.10728970418153276,"15":-0.0960721335630749}}},{"out_depth":16,"out_sx":12,"out_sy":12,"layer_type":"relu"},{"sx":3,"sy":3,"stride":3,"in_depth":16,"out_depth":16,"out_sx":4,"out_sy":4,"layer_type":"pool","pad":0},{"out_depth":10,"out_sx":1,"out_sy":1,"layer_type":"fc","num_inputs":256,"l1_decay_mul":0,"l2_decay_mul":1,"filters":[{"sx":1,"sy":1,"depth":256,"w":{"0":-0.07296231395869948,"1":-0.1996320674012685,"2":0.01046430828110671,"3":0.011720469594539968,"4":-0.21325203758232614,"5":-0.15562994064522367,"6":-0.0017139938367259895,"7":-0.11384723227963126,"8":-0.11220735698280018,"9":-0.061756740192391454,"10":0.034265792685990434,"11":-0.10989158759240708,"12":0.0005766697738392764,"13":-0.0908343661868871,"14":-0.020589067069104162,"15":-0.128780032266237,"16":-0.1591133125132707,"17":-0.16875343390592998,"18":-0.02744025014537352,"19":-0.06053490623787183,"20":-0.2549093112833958,"21":-0.24765720782287998,"22":-0.2591323483739441,"23":-0.2101421669778916,"24":0.010342448765397427,"25":-0.024312633631769803,"26":-0.1598838324956988,"27":-0.19599822152011728,"28":-0.06398766855781667,"29":0.05016659866200598,"30":-0.1907568420920234,"31":-0.19399833708025452,"32":-0.11270137176110748,"33":-0.1322367539734448,"34":-0.10016191580321351,"35":-0.024900837689763946,"36":-0.09544860370458205,"37":-0.179354705705613,"38":-0.35983519375193396,"39":-0.3858604307086382,"40":-0.5075478731788462,"41":-0.10451031136970182,"42":-0.18111010379552786,"43":-0.18241264871836038,"44":-0.002782921936428258,"45":-0.0062547200325325115,"46":-0.031998484778010115,"47":0.05629937839704207,"48":-0.2441228854473012,"49":-0.20254820589071426,"50":0.0035943825261169635,"51":0.10435125172038892,"52":0.23157294950993756,"53":-0.236331002446572,"54":-0.3448373240190508,"55":-0.1581792646748858,"56":-0.3365331593717053,"57":-0.19314215503147436,"58":0.11290658086810451,"59":0.024306845323933835,"60":-0.05999528993324285,"61":-0.09029413219711224,"62":-0.043427837654787686,"63":-0.16124322005314762,"64":-0.08672093961676433,"65":-0.1629296398263453,"66":0.09621338853144634,"67":-0.16953632491256285,"68":-0.07084877621247881,"69":-0.021395134730445808,"70":-0.03385277281732214,"71":-0.10371079088521318,"72":-0.037490854193799335,"73":0.06918996791135713,"74":0.03397472694710329,"75":0.15277209524292912,"76":-0.18387039934108396,"77":-0.584133814228849,"78":-0.489248002089158,"79":-0.19966777205475922,"80":-0.2336696101131613,"81":-0.1771414702536068,"82":0.07196443098412096,"83":-0.23084475261165577,"84":-0.09740433608802444,"85":-0.061875271764047106,"86":0.03620066021879292,"87":-0.1838224630966353,"88":-0.1020242402871973,"89":0.08560354538530987,"90":-0.1442392944818496,"91":0.17180460966317984,"92":-0.19303918518108498,"93":-0.34830821348320556,"94":-0.32238568543705376,"95":-0.09741104164141039,"96":-0.16953094525773643,"97":-0.12290968493579052,"98":-0.11491235665543265,"99":-0.27078077890281016,"100":-0.06061880008626649,"101":-0.0619419633348032,"102":-0.11945936186814542,"103":-0.13868778401185403,"104":-0.13209915211189385,"105":-0.005884751621644975,"106":-0.17236983158098773,"107":-0.061284965937023726,"108":0.03172977346622218,"109":-0.17160310433388246,"110":-0.15957098859361152,"111":-0.19340450703972506,"112":-0.16421790184331153,"113":-0.2297778136168725,"114":-0.2404798445993797,"115":-0.17015934598913615,"116":0.20426185586783485,"117":-0.11667979074350388,"118":-0.367126151364996,"119":0.2639407866289699,"120":-0.22100603525531642,"121":-0.3361231408755986,"122":-0.04993472415969366,"123":0.24483350556456943,"124":-0.01040369043499671,"125":-0.18824182781079765,"126":-0.05799061291892017,"127":-0.2958049324479068,"128":0.003768938084383307,"129":-0.12289804730085896,"130":-0.1762738772537952,"131":-0.32227316894278524,"132":0.09155429131455951,"133":0.07851644638922849,"134":0.1341031829243248,"135":0.004231473658400275,"136":-0.22257967810485751,"137":-0.05905298106201282,"138":0.05355010229517387,"139":0.08439905417874526,"140":-0.054738844343459325,"141":-0.3448751115415786,"142":-0.40310850011232885,"143":-0.2946218822056784,"144":0.01852828735373922,"145":-0.10898485083289997,"146":-0.37861136678240187,"147":-0.13541653572577067,"148":-0.0008778986590375665,"149":0.08144725735242155,"150":0.04339579530079498,"151":-0.3827454669982517,"152":-0.07931645574423013,"153":-0.3992059148222103,"154":-0.024339028021517398,"155":0.021662272573005424,"156":-0.08504422596960073,"157":0.0847578937544628,"158":-0.46868872735423583,"159":-0.25155651270128193,"160":-0.058961551653784444,"161":-0.13916856962443647,"162":-0.08133817420946045,"163":-0.12485890735630041,"164":-0.21543990576081826,"165":-0.29677536084341705,"166":-0.029258166738339846,"167":-0.1927962906372211,"168":0.1289576558617837,"169":-0.0076000367386982026,"170":-0.06708079258737891,"171":-0.0942258196014876,"172":0.12600507779172893,"173":0.022935552387066575,"174":0.14431496675695488,"175":-0.3337729668730894,"176":0.11835139946061178,"177":-0.06800574552147667,"178":-0.38278289475876287,"179":-0.14520609712683535,"180":-0.14477275591450464,"181":-0.23902592325469976,"182":0.06770512882152138,"183":0.10699924039232057,"184":0.04815052766009649,"185":0.033860959861658185,"186":-0.3295806135638521,"187":0.009273943494825184,"188":0.057475370661337254,"189":-0.13340261421625918,"190":0.04354321831628472,"191":-0.029368766173038297,"192":0.11013903659480938,"193":-0.1144797262527688,"194":-0.12452044266652511,"195":0.02665923767258543,"196":0.08309890395974431,"197":0.09791680753630293,"198":0.08762661799001314,"199":-0.028878484205404124,"200":-0.2744403507397495,"201":-0.15851269692571554,"202":-0.18683015103257242,"203":-0.037881419203756754,"204":-0.06913125827186524,"205":-0.13650501052111644,"206":-0.06373434320654152,"207":-0.06528565366723495,"208":0.17514703165842116,"209":-0.11370567467936943,"210":-0.08321116342346656,"211":-0.025827055823627196,"212":-0.06537743206440066,"213":-0.17081054985611333,"214":-0.1534547665986607,"215":0.06622934385378543,"216":-0.24078260937645965,"217":-0.23547436140073635,"218":0.09714162032418237,"219":-0.38723787053635833,"220":-0.1097213485951381,"221":0.050383966109087436,"222":-0.0740396929488718,"223":-0.11333787514560198,"224":-0.01896571715943354,"225":0.020511625029241948,"226":0.13656790794993956,"227":0.12710169581864345,"228":-0.16321206994626383,"229":-0.38081472238725683,"230":-0.1797761181975597,"231":-0.134397868541901,"232":0.21381431148956562,"233":0.19826393026373093,"234":-0.11492318296785668,"235":-0.8118252425045266,"236":-0.1643570261205561,"237":-0.036238577784922975,"238":0.0023772038496024032,"239":0.12451845929948502,"240":-0.07800390183605233,"241":-0.1916020343855447,"242":0.08241992651496415,"243":0.010238229443040434,"244":-0.2728863507681717,"245":-0.09313446725757761,"246":-0.13888980895555772,"247":-0.4054160335438233,"248":-0.11449750622555149,"249":0.25940343535212584,"250":-0.16042063384014218,"251":-0.39687540900818297,"252":0.007098611733011332,"253":-0.029852478292111795,"254":-0.048800442993744905,"255":0.13293610788238458}},{"sx":1,"sy":1,"depth":256,"w":{"0":-0.17586944473062632,"1":-0.14879416183911878,"2":-0.0837455320948614,"3":-0.021326723281244325,"4":-0.12228792672511599,"5":-0.07880250770336755,"6":0.06597392305510634,"7":-0.08861013886620839,"8":-0.19475119162014348,"9":-0.17885947932955895,"10":-0.013603020991813172,"11":-0.05440402384399592,"12":-0.05348908582985672,"13":-0.09502975266856327,"14":-0.11231636525200503,"15":-0.05135316684607701,"16":0.09200336893252269,"17":-0.26242122519626676,"18":-0.13844869407903854,"19":-0.3913157633859692,"20":0.05013357944184549,"21":0.22419636998670098,"22":-0.011635679148561428,"23":-0.06598644862638074,"24":0.14744115023659202,"25":0.048397898976804264,"26":-0.05992184378778837,"27":0.1811540413373211,"28":-0.049165253215399586,"29":-0.25930106964845,"30":-0.18403355694603826,"31":-0.33712243708349665,"32":-0.03107197293246863,"33":-0.38357655534855284,"34":-0.28223464017021566,"35":-0.3109927250951838,"36":0.06971940309572407,"37":0.13168529523280112,"38":-0.04646495272336837,"39":-0.026545757345822242,"40":0.12389597200636988,"41":0.04934910453128817,"42":-0.1097614777979363,"43":0.22460248701443894,"44":-0.08263937631486462,"45":-0.2418672136228547,"46":-0.07658657523706577,"47":-0.08240799519225595,"48":0.02933904728707506,"49":-0.20045352740750888,"50":-0.26155021184538246,"51":-0.14042065935334175,"52":-0.0655208474078831,"53":0.12943692101089133,"54":0.036070716021984875,"55":-0.03803805726257385,"56":0.020916959269364935,"57":-0.011075820510708321,"58":-0.3233472002036552,"59":0.31889910717505876,"60":-0.16387241952268156,"61":-0.20646211246707974,"62":-0.12606902079227514,"63":0.09127776118099609,"64":-0.030291520136977106,"65":-0.12749936801166223,"66":-0.28759527830342474,"67":-0.025238942744143796,"68":-0.22137471529177905,"69":-0.4303913209721625,"70":-0.0498248067744253,"71":-0.1250488091596865,"72":-0.26067797544246635,"73":-0.2726106318363485,"74":-0.000059084384789440564,"75":-0.3894877512564008,"76":-0.24250883078224586,"77":-0.03913630447700566,"78":-0.15575290319534235,"79":-0.05749650779591052,"80":-0.27018180577267986,"81":-0.12021540899857536,"82":0.20095324919130164,"83":-0.19304765122391268,"84":-0.035015232307874664,"85":-0.10111384424530395,"86":-0.11620191858876927,"87":0.06098211519374188,"88":0.010570223163582382,"89":0.017079180833420846,"90":-0.4326183950209153,"91":0.0922510615950649,"92":0.02246403568226047,"93":-0.38556392516487337,"94":-0.3157866358519943,"95":-0.2336837252906929,"96":-0.2889188980092454,"97":-0.6432075066575845,"98":-0.017525023108961223,"99":-0.4943130202641,"100":0.006002306518433092,"101":0.20375610997724616,"102":-0.035865361550858434,"103":-0.0468824038395804,"104":0.18724667125598635,"105":0.19139450119646714,"106":-0.09518665158347975,"107":0.03721056526825431,"108":0.040883950694417116,"109":0.18415201643879997,"110":-0.13792112276618448,